0.051557373
-0.2594407
0.3343227
-0.06265999
-0.27989754
-0.22598517
-0.032542918
0.14206494
-0.032963663
0.02596479
-0.29303548
0.18123396
0.20972404
-0.32657114
-0.17046568
0.19599822
0.17798272
-0.17255011
-0.17624952
0.08984318
0.18312371
-0.031313784
-0.20271814
0.098703995
-0.21931727
0.19794087
-0.086756766
-0.3454617
-0.018853664
-0.14652425
0.18058623
0.29405972
-0.28176624
-0.31633663
-0.123988986
0.24601111
0.3817507
0.27051926
0.2437579
-0.010114681
-0.14477527
0.15080252
-0.16127421
-0.16130453
-0.23422927
-0.24472226
0.07005975
-0.063058496
-0.048252445
-0.19641937
-0.32389736
0.15441926
0.23085067
-0.0049884617
-0.31737036
-0.08031859
0.3278743
0.20264463
0.25113082
0.0705041
-0.0322716
-0.03413537
0.036143813
-0.015826985
-0.00062506116
-5.9308223e-07
5.049e-42
-0.04153793
5.0755163e-05
0.00097396114
0.025055757
-5.256e-42
0.30022293
0.11840053
-0.07812736
-0.04803251
0.3728262
0.30830315
-0.12796415
0.36914945
-0.06989531
-3.8933288e-07
0.015947739
-1.444379e-13
1.4726058e-38
-0.0008929762
1.9969731e-21
0.007186143
-2.075e-42
-4.8662076e-07
0.043219026
-0.33835354
0.09271868
-0.16632397
-0.22450773
0.21211304
0.19432814
0.2020343
-0.12621282
0.06520016
0.28774717
0.009764379
0.36747375
-0.124683425
0.33897433
0.39192283
0.40357953
-0.20169061
-0.33037025
0.29366416
0.016965093
-0.12287425
0.028076138
0.03229251
-0.3619031
-0.038182173
-0.046994478
-0.30882198
0.0012531518
0.1450116
-0.23349626
0.028352495
0.16412382
-0.1399349
0.26036525
0.30659816
-0.24298804
-0.21379334
-0.081497855
0.06576659
-0.0047796
-0.068743885
0.039343957
-0.044045784
0.23616177
0.0051237713
0.0008116482
-0.055897698
-0.019389313
0.04153591
0.00013469589
-0.0007128686
-0.002775955
-0.0018920446
-0.020575352
-0.06681102
-0.15706915
0.13795441
0.2077189
-0.2569813
0.45520613
0.21412055
0.18033274
0.330367
0.14231274
-0.03076351
-0.05342835
-0.123650976
-0.30563173
0.12500839
-0.16708383
-0.0035022374
0.15798736
0.33221918
0.20967062
0.060453344
0.33405992
-0.09583879
-0.060433835
0.35748687
0.27899107
0.36333615
-0.15910412
0.32858697
-0.033844974
0.21180987
-0.104486965
0.18554367
0.3583767
0.23261516
-0.030966055
-0.008178861
-4.2962367e-09
-1.5955e-41
-1.35056225e-05
5.109018e-07
-1.729008e-11
1.4670406e-05
-4.064e-42
0.17271484
-0.16789223
0.28841555
0.1725935
-0.073167354
-0.026237438
0.2518872
0.39854077
-0.037250735
0.34763625
0.3495214
0.2834487
0.008012269
0.02780373
-0.07189877
-0.23669831
0.3285898
-0.18033482
0.011577222
0.08362338
-0.07672113
-0.018054694
-0.036323354
0.02916637
0.0054086046
0.007386318
0.012511631
0.27122614
-0.28701478
-0.30452272
-0.020976318
0.12644856
0.004375243
0.011856003
0.25945866
0.0759712
0.29775292
0.24904285
0.13383947
0.018113922
0.22684869
0.38928705
-0.23452143
0.07176464
0.27691266
0.116206065
0.10977284
0.35825244
0.11811403
-0.15131718
0.018906362
0.40827945
0.21720698
0.066178486
-0.12025744
0.2769501
-0.046215434
-0.02179079
-0.12568073
0.36550707
0.2674915
0.16652931
0.053247973
-1.3114119e-14
-1.2309565e-05
7.578e-42
-6.602106e-09
-0.00018389853
-0.036120187
-9.453e-42
0.05022658
-1.3188e-41
0.026803441
-0.21085165
-0.14497298
0.36547437
0.29278472
-0.14271182
-0.08628619
-0.1937795
-0.10804253
6.59478e-09
9.1100866e-08
-2.3395303e-23
1.128e-41
-0.026222222
0.008389539
-0.051415637
-0.014260703
-7.035684e-05
1.16527e-24
1.7866415e-14
0.00043610478
1.066e-41
-0.02080243
-0.0042988188
-0.00032810034
-0.0026651577
1.508e-41
0.21484378
0.12618132
0.11144485
0.3337664
-0.0060226303
0.3018975
0.11613459
-0.0540506
-0.10448275
-0.033403862
0.086260274
0.07385627
0.36922452
0.02859238
0.22619249
-0.04687467
-0.0481824
0.09070137
0.20707619
-0.08597944
-0.040525537
-0.118682854
-0.06992286
-0.0050494988
0.32193148
-0.20742537
-0.19495013
0.26946533
-0.032190047
0.13441753
-0.0008918387
-0.01766969
0.060073998
0.0584637
0.05754907
0.05811702
0.0426149
0.04520807
0.045340747
0.026191836
0.05267121
0.053008948
0.044834256
0.034756277
0.032985456
0.05339123
0.06895422
0.03797259
0.026736988
0.0044208416
0.002524414
0.01733242
0.027774747
0.032454506
0.033086393
0.03102943
0.016307943
0.028131155
0.025051547
0.036910508
0.046943758
0.029001148
0.013342067
0.002899025
-0.007866566
-0.01382448
-0.028848654
-0.0066212774
0.0056516123
0.0041908
-0.0043630768
0.009773133
0.016553754
0.0067625362
0.011358042
0.024134926
0.022177266
-0.017786905
-0.002536412
0.008280393
-0.007684441
0.0036091106
0.0023957037
-0.008776557
-0.008160943
-0.009017206
0.009182929
0.0043894593
-0.008690806
-0.0017682684
0.0004692673
-0.019616248
-0.0242603
-0.016778719
-0.0057859123
0.0023858957
-0.007773642
0.0017557362
0.0051415283
0.0067381957
-0.0003326671
0.0057246126
0.0058196355
0.009440072
-0.013796161
-0.0045185075
-0.020648638
-0.023956327
-0.011399365
-0.010275534
0.002573861
0.0151303755
-0.0057780393
-0.036692727
-0.01621766
-0.000706189
-0.0048000277
-0.00010990494
-0.023269739
-0.021103222
-0.028753776
-0.02534177
-0.01976226
-0.012739118
-0.011046453
0.0027986001
-0.007001068
0.00615225
0.003220889
-0.03284805
0.0051569347
0.020090625
0.01361662
0.020957116
-0.0018420101
-0.02457589
-0.025177864
-0.00820872
-0.019913208
-0.019143384
-0.015353538
-0.0041678
-0.024627533
-0.017164638
-0.03489706
-0.023059344
-0.016114343
-0.0059626508
-0.035919
-0.0363055
-0.009907218
-0.01885544
0.02828036
0.03210905
0.019744338
-0.028784348
-0.02514079
-0.042674016
-0.039534163
-0.037970018
0.001917411
-0.0024251416
-0.002748919
-0.02011226
-0.01528784
0.02522495
-0.0020274452
0.064111695
0.037796568
0.0072550136
-0.031271644
-0.027549548
0.049114864
0.05037028
0.020974856
0.019213764
0.011645907
-0.0029745512
-0.018301029
0.0059877485
0.02983321
-0.0134154055
0.042658873
0.046476353
0.02547563
0.011045579
0.0032731835
-0.0012446315
0.021266842
0.018224189
0.030641718
0.020223465
0.0122398
0.009861443
0.06263761
0.03746713
0.03945192
0.051178478
0.057015754
0.019112978
0.017018646
0.040895697
0.040658943
0.031952694
0.026021183
0.034366127
0.026917346
0.011990981
0.023258159
0.053174682
0.026666194
0.033387396
0.036276866
0.0246945
0.04085956
0.015173502
0.0054220646
-0.010821261
-0.013595406
0.015412669
0.02704758
0.03355486
0.03280262
0.047437776
0.025744278
0.013797903
0.0081228735
0.028565241
-0.0026657525
0.042983636
0.0020010632
-0.0039497763
0.015505413
0.023112342
0.013957276
-0.008920618
0.009024547
0.046132695
0.023919374
0.0077755246
0.00054944237
-0.0016444507
-0.007901079
-0.017076029
-0.013245045
-0.0017747814
0.0029303783
0.008228468
0.013033998
0.04300671
0.051806923
0.047894046
0.041113243
0.009395518
-0.023449698
-0.037992485
-0.021751903
0.033962842
0.019515077
0.01605351
0.025336238
0.037738718
0.04112914
0.018812131
0.028974809
0.047194764
0.04275542
0.038380954
0.011078896
0.03681716
0.0533673
0.053828523
0.013551926
0.018716129
-0.012699532
0.02226178
0.014544666
0.0151984785
0.011509113
0.0021809817
0.0024280266
-0.006057495
0.016545372
0.034347977
0.028227951
0.027854247
0.011957979
0.0005561074
0.020530557
0.0046948334
5.831991e-05
0.008008828
0.029568601
0.019963024
0.0009905649
0.006476317
0.013560883
-0.00045372066
-0.0011657074
0.0018096968
0.03661155
0.016105255
0.0042029014
0.023828747
0.033611573
0.0034423883
0.011564702
0.031954974
0.01950033
-0.011196119
0.018369596
0.0023588312
-0.009049665
-0.017182425
-0.008783129
0.0038054443
0.011771742
-0.008922709
-0.0026811247
0.0122769615
0.015596144
0.0074141063
0.011561738
0.02378076
0.012735071
0.031131664
0.032611676
0.0017394591
0.014878753
-0.025081055
-0.031664245
0.015595749
-0.010727217
0.0030447345
-0.004599212
0.009884839
0.0392909
0.020882659
0.014858192
0.039840054
0.02226309
0.0149343
0.026443748
0.009748958
0.0055129947
-0.031080496
0.0104957465
-0.027084677
0.0039860248
0.01062157
0.008813984
0.022765534
0.028536368
0.015692467
0.00013032727
0.024067773
0.01269047
0.012404981
-0.0018252876
0.032624446
-0.01826315
0.0055640703
-0.015592369
-0.015297629
-0.030461635
-0.037014212
-0.018106375
-0.01594246
0.0015892797
0.008014897
0.011708333
-0.033053603
-0.021905784
-0.032599226
0.026600478
0.0030968473
-0.020143755
-0.0032602444
-0.0044297753
-0.011718801
-0.009008833
0.0037944417
0.00935493
-0.0053170207
0.008454777
0.02869309
-0.026359284
-0.04016088
-0.019325025
0.00068808085
-0.00029889037
-0.0036853421
0.035916436
0.0074429484
-0.0018463678
0.004767351
0.004803772
0.03807535
-0.0014131269
0.009076107
0.0152765885
0.005383491
-0.002481661
-0.0056196284
0.016533205
-0.002149995
0.00264122
0.003382619
0.014677059
-0.014546092
0.015307771
-0.0012801613
0.013052335
0.032324687
0.00772219
0.022965558
0.0021641704
0.009909701
0.02611515
0.014425866
0.027675498
0.004218631
0.047654707
0.028152507
-0.01008743
0.008154567
0.041360304
0.002363806
0.02721907
0.022925803
0.034742106
0.01795958
0.024289437
0.020870032
0.008795064
0.0070165345
0.0023288664
0.032090254
0.01671126
0.018860048
-0.015883243
0.027761206
-0.00862997
0.0076758484
0.015170882
0.023758126
0.038174815
0.03459695
0.026318021
0.008754245
0.010391771
0.0036738734
0.036895044
0.042523514
0.03386879
-0.014413469
-0.029342063
0.02599833
0.010320938
0.0013237712
-0.0056132744
0.035996936
0.029875325
-0.021082658
0.0015396777
0.0186438
-0.009485914
0.013388767
0.023996664
0.04270569
0.0013636575
-0.0074526705
-0.0056297006
0.025368448
0.03908929
0.023170533
0.025042554
0.02154023
0.0063421535
-0.030139541
0.026289633
0.012007098
0.032761134
0.043834653
0.035190582
0.020854838
0.005143775
-0.0020074535
0.008028652
0.009282277
0.0060824463
0.026607143
0.010925113
-0.00783267
-0.014503841
0.009049961
0.021542367
0.015537202
0.026581353
0.032066494
0.0009415654
-0.014125447
-0.0001255841
0.019647622
0.02049253
0.008313858
-0.008358929
0.017170608
0.0052156355
0.0019793834
-0.014723812
-0.00761915
0.004441509
0.013233889
0.032665327
-0.0036569538
-0.0031366472
-0.034694545
-0.00087400427
0.0050753052
-0.00058504584
-0.004706561
0.008299106
0.0016546218
-3.562516e-05
-0.014159251
-0.01757309
-0.00034456135
-0.001914908
-0.0045090346
0.010303967
0.022074355
0.015455447
0.0182783
0.025640532
-0.0012122012
0.019677794
0.02393487
0.02061636
-0.016011309
-0.019990444
-0.03508606
-0.009349742
-0.01003706
-0.0032822718
0.0043808306
0.033404265
0.039748963
0.035872642
0.039735388
0.033448588
0.043964922
0.043989956
0.032287452
0.02567344
0.0031001207
-0.021133663
-0.01174028
-0.012507686
-0.022890808
-0.008736544
0.0037043036
0.030546669
0.0109111825
-0.01342173
0.001597188
0.019120084
0.01858416
0.0044945898
0.005103066
0.005100414
-0.037953664
0.004137515
-0.010458053
-0.034419768
-0.006304401
-0.015611322
0.028379656
0.019724526
-0.0017041984
-0.015571138
0.017881434
0.02132386
0.014428709
0.00017968025
0.017978327
-0.020076415
0.020211536
0.001452916
-0.0063526467
-0.018574184
-0.029007386
-0.015374149
0.0033392366
-0.0068094726
-0.017314933
-0.004680679
0.014459641
-0.0038096537
-0.022333197
0.02283808
-0.010638452
0.03938664
0.035485897
0.023151493
0.010211809
0.010348202
0.0043071625
0.020549178
0.015950842
0.015815211
0.04973666
0.027345346
0.021650903
-0.022867665
0.044500582
0.020082474
0.038783967
0.02789432
0.022135967
-0.008170555
-0.00017371673
0.012458384
0.034741078
0.017579207
0.00069074775
0.046036858
0.017046222
0.019010535
0.007667603
0.051873073
0.0056699044
0.03861618
0.025606584
0.030905817
0.012242311
0.025892938
0.0073551983
0.024232991
0.0180468
0.029287728
0.05929186
0.030453902
0.019620026
0.016277984
0.04727142
0.011923411
0.028833752
0.025855005
0.041931022
0.020938583
0.019889278
0.02900539
0.020082327
0.012351285
0.012568197
0.036721926
0.0260689
0.018983917
0.02057723
0.03261488
0.030588824
0.00592211
0.022481
0.034701783
0.029662076
-0.0020595083
0.029889783
-0.0005485148
0.016716132
0.023535358
0.03465857
0.027568301
0.024342658
0.02110795
0.029163381
0.029982934
0.0031373976
0.004270001
0.016993761
0.031894058
0.0040144906
0.013238375
0.016843265
0.029967299
0.02497722
0.0060420516
0.029542502
0.02062127
0.014575022
0.015217706
0.003973236
-0.0051300786
-0.009772973
-0.02366673
-0.017487606
-0.01039328
-0.021206088
0.0058828527
0.015837172
0.026105562
0.026821885
0.024944691
0.02719321
-0.002471535
-0.016550463
-0.01918644
0.053397007
0.051799513
0.04764112
0.042789917
0.038342264
0.056968965
0.038870674
0.044822987
0.05715875
0.045235272
0.04892086
0.048598863
0.046144344
0.06413014
0.06589346
0.044198416
0.03735013
0.04299408
0.04169482
0.029211737
0.004448073
0.01533751
0.02786136
0.019788971
0.033453003
0.03833158
0.033513036
0.05103843
0.035401985
0.047755703
0.022628183
0.016082091
0.01804959
-0.0136560565
0.009966671
0.014479427
0.02223819
0.010935777
0.008671891
0.008668901
0.010823369
0.01675708
0.025167955
0.034206893
0.031319518
-0.0009983492
-0.009294661
-0.0071348296
-0.0077373064
-0.0060180603
0.018580375
0.015979486
-0.0025567263
-0.006053285
0.008248366
0.0032821395
0.01740697
0.0039669387
0.0070150136
0.016845303
0.004650591
-0.0015311916
-0.012297401
-0.0023922075
0.038861487
0.039444666
0.025596704
0.025068613
0.03011646
0.031288583
0.029954758
0.0063074226
0.017392116
0.004332932
-0.018794121
0.010678472
-0.0050863214
0.001985799
0.03915877
0.04056111
0.03414777
0.041559167
0.029765481
0.018229203
0.023918776
0.028535577
0.034634285
0.0061626565
-0.015512609
-0.017768824
-0.009218111
-0.00017144246
0.015734386
0.0005236217
0.015477895
0.013146286
-0.0006145835
0.015499976
0.026630359
0.019090315
0.028441142
0.030709231
-0.011411521
-0.011057802
-0.00991057
0.013738828
0.0010672009
-0.004737058
-0.010731216
-0.0029358685
0.014121138
-0.001992271
-0.0074113742
0.0025605087
0.019598816
0.007719809
-0.0027530745
-0.025381817
-0.0014240782
0.0024911724
0.046160422
0.025286306
0.005456001
-0.006770658
-0.016821282
0.005781436
0.016584765
0.012129823
0.029335152
0.042881984
-0.008696202
-0.0044370973
0.008006054
0.019958576
0.008948334
0.055091504
0.034534734
0.03023026
0.029147293
0.029350145
0.04873429
0.027894497
0.029193321
0.051119145
0.038522366
0.011278855
0.0025324384
0.030472156
0.02677954
0.008320342
0.049989305
0.0334201
0.032377664
0.026541283
0.029289218
0.03558076
0.04151254
0.03564358
0.029348174
0.022608181
0.019851618
0.019562224
0.04266373
0.022641785
0.015813665
0.04635578
0.03710266
0.042172268
0.024580508
0.029050827
0.036032192
0.032875646
0.03067392
0.048457775
0.04052405
0.03241856
0.04321281
0.032051113
0.02462436
0.030730113
0.046847392
0.05145658
0.0435294
0.028350176
0.01685702
0.011585845
0.0115036005
0.035446946
0.031439036
0.012486341
0.033698875
0.03625857
0.027750157
0.02388225
0.026019678
0.034464926
0.04395033
0.020838622
0.026156573
0.008110117
0.00912017
0.027383232
0.02360661
0.022968693
0.023387177
0.03306306
0.03612244
0.02636328
0.01279133
0.0038828936
-0.0067561343
0.013480691
0.00747549
0.003210037
0.023207689
0.02830713
0.033195645
0.03274075
0.03305474
0.041100744
0.03511309
0.021127775
0.015006004
-0.0092683695
-0.01644053
-0.06503599
-0.06539709
-0.046827607
-0.035948955
-0.033704884
-0.011542262
-0.0060959375
-0.016908051
-0.039540924
-0.015060987
-0.003993134
-0.016354548
-0.0718476
-0.07860094
-0.07890125
-0.04629299
-0.0412314
-0.04950184
-0.039330106
-0.030009171
-0.028362116
-0.02441749
-0.015656553
-0.015579874
-0.019815002
-0.024378438
-0.013224427
-0.017377643
-0.05393802
-0.06264039
-0.04717112
-0.049407642
-0.030859932
-0.019359991
-0.031475663
-0.04810921
-0.059037145
-0.058963
-0.043352045
-0.008110223
-0.010985385
-0.026521334
-0.026714612
-0.03898201
-0.06000106
-0.042521287
-0.02382975
-0.017427623
0.005993969
0.0108259395
0.008562682
0.0018471434
0.00013783752
0.011713694
0.018870233
0.0130238645
0.017887091
0.00977495
-0.008642099
-0.045401067
0.01836635
0.005359275
0.029748298
0.039728276
0.034238316
0.034645725
0.019414322
0.025601536
0.032084823
0.025105495
0.015456739
0.03168938
0.032153822
0.00024189679
-0.007884421
0.0070647122
-0.020761702
-0.017316857
-0.017242953
-0.018953279
-0.0035612383
-0.026237646
-0.028971752
-0.0097751375
-0.0077790758
0.000504412
-0.0052228076
-0.0027801138
0.01577722
0.024028912
-0.010687671
-0.023798697
-0.034853037
-0.016634295
-8.778079e-05
-0.005434758
-0.0071688676
-0.014473685
-0.019193677
-0.0071000233
-0.007542833
-0.008916196
-0.0046340656
0.028884718
0.054225326
0.062071897
0.05094778
-0.0021737092
-0.018113518
-0.011979698
-0.018399294
-0.019427996
-0.0032897657
-0.012037948
-0.02147024
-0.034536924
-0.017613346
0.0018026704
0.011351792
0.0110171
0.024782147
0.018051773
0.014908896
0.025901783
0.03622872
0.03374301
0.039977368
0.026046718
0.023810206
0.036344368
0.03222146
0.039463352
0.039549336
0.019151593
0.0075083403
-0.023794005
-0.0007292863
0.0002588663
-0.015974553
-0.015906554
-0.014760192
0.00162108
-0.0029004894
-0.017952625
-0.03274624
-0.0062901443
0.013641902
0.03219968
0.027145462
0.012594962
0.0053561064
0.011404292
0.008441275
0.016505493
0.0015723434
-0.012672864
-0.0077874493
-0.0061542937
-0.0001741129
0.009197597
0.015680736
0.0054320837
0.009719038
0.03285002
0.025205145
0.009425278
0.0073424974
-0.0019153971
-0.028673071
-0.006479597
-0.010887589
-0.017200548
-0.0056994716
-0.01123926
-0.022184068
-0.0050403704
0.010228711
-0.0033889664
-0.0019450663
0.0033661916
-0.013170998
-0.030476373
0.00020925979
0.0023856966
-0.00586609
0.007505984
0.010184956
0.012752776
0.008785507
0.013692519
0.033139527
-5.018103e-05
-0.02323668
-0.014802084
0.00500835
-0.045115747
-0.0508495
-0.04914653
-0.0031520536
0.012067911
0.015995134
0.026234781
0.013443728
0.020767339
0.029484235
0.023345146
-0.0070876195
-0.05121582
-0.024606753
0.006595919
-0.008203201
-0.043519404
-0.05946782
-0.03803607
-0.019080125
-0.034600843
-0.031896684
-0.041533608
-0.029390411
-0.016324995
-0.04794361
-0.037246466
-0.044892382
-0.036381397
-0.01599098
0.042375963
0.0330184
0.037608083
0.05844476
0.054064065
0.045994617
0.0336294
0.032687537
0.06202846
0.045690496
0.049288757
0.03723323
0.043052733
0.054911807
0.064626515
0.042666376
0.028898403
0.03761295
0.035128687
0.022039253
0.012297172
0.019304058
0.013292568
-0.005434709
0.011008792
0.03038729
0.033094976
0.042579867
0.029724507
0.04001119
0.026804041
0.028033094
0.005340424
-0.011347174
0.00945155
0.018402122
0.0105590345
-0.001515169
0.006415294
0.008058813
-0.0015756753
0.008053105
0.020957055
0.03087021
0.035273664
0.0039164713
0.0062620696
0.0010125017
0.009964588
0.006611568
0.004869372
0.003046808
0.0058403616
-0.00805931
-0.0015390142
-0.0017284671
-0.008721832
-0.0069686826
0.01869862
0.0096068885
-0.006085351
-0.006561383
0.0015176125
0.014559661
0.0142927375
0.021677634
0.018670894
0.014336521
0.037279397
0.029570023
0.020496937
-0.002051313
-0.022516252
-0.022151498
0.001493453
-0.0062761353
0.0017968485
0.00196997
0.03496661
0.04175866
0.013494418
0.022203889
0.03306529
0.016229289
0.021136684
0.018624317
0.01560619
0.0065866853
-0.018941272
-0.00067820563
-0.0039308933
-0.012558842
-0.004126293
0.01605663
0.015622692
0.018134337
0.0012987411
-0.0034752726
0.010002902
0.02500152
0.019511841
0.015113298
0.0018351977
-0.03400428
-0.008004281
-0.020173408
-0.028512837
-0.020528886
-0.017559659
-0.005543756
-0.016916208
0.0018209674
-0.009776064
-0.00648883
-0.021626662
-0.005844417
-0.03189094
0.0008892615
-0.01204378
-0.018278737
0.0055719484
0.0015410556
-0.0065920185
-0.010997639
-0.004808971
0.002886403
-0.00506356
0.008005157
0.0054350817
0.004350374
-0.014077901
-0.0149098
0.012219866
-0.0011238904
0.012563562
0.05610069
0.02298531
0.015572884
0.011072759
0.020947011
0.034155175
0.017035168
0.022234553
0.029663654
0.026324766
0.0095664505
0.008845531
0.0066075576
0.015438803
0.027829962
0.029901575
0.024151934
0.028242527
0.008217612
0.008199929
0.027848456
0.042457815
0.030357815
0.020472676
0.019621193
0.024224373
0.019897977
0.027922984
0.03313124
0.012701641
0.05625269
0.04408822
0.010251511
0.015138543
0.046144422
0.025800984
0.03793183
0.025966566
0.032922067
0.0398078
0.025208464
0.031882383
0.02280755
0.018491067
0.031164484
0.04835178
0.039798114
0.021221386
0.0060094395
0.013343295
0.0072944034
0.003803464
0.019464223
0.04165675
0.022588646
0.03457798
0.031227747
0.03811565
0.032218374
0.013927089
0.05815538
0.044901643
0.03761714
0.018018326
-0.016923476
0.018806469
0.017399084
0.010903843
0.021417072
0.031194344
0.039593976
0.017660262
0.04007347
0.025479423
0.0128961755
0.03164434
0.014994619
0.041505557
0.02863691
0.007203049
0.0075573013
0.029340204
0.032855924
0.04156232
0.035230383
0.038801834
0.01302637
0.010820731
-0.0008075524
0.007327918
-0.029675465
-0.02984956
-0.020754011
-0.0066403435
0.015797734
0.0050324807
0.010896403
-0.00075526786
0.0024828159
0.016110789
-0.015757706
-0.03065423
-0.019520333
-0.02652155
-0.04133109
-0.0051371153
0.0033557317
0.029216455
0.029519944
0.016956965
-0.0033829415
-0.00063798955
-0.004529343
0.0016181049
0.009556975
0.0029494565
-0.016215632
-0.017966188
-0.018899063
-0.027140578
0.014376781
0.021549046
0.01761172
0.02133412
0.010711468
-0.00954536
0.0001877006
0.008861146
0.013648615
0.023217816
0.023424119
0.010946904
0.011260286
-0.008632064
-0.022110807
0.017855631
0.029971592
0.001972483
0.009514869
0.00014731678
0.008835461
0.0014150684
0.013566991
0.011666362
0.00048161525
0.012602756
0.023631476
0.038260363
0.019908298
-0.021867413
0.023508493
0.016887981
0.009970367
-0.0063628606
-0.0028358477
0.006825883
0.016687712
0.0028277163
-0.0075530545
0.013496274
0.010377957
0.011471719
0.027841255
0.01352462
0.00088183576
0.0057477728
-0.006066382
0.005338058
-0.009245824
0.0072365617
0.0144115295
0.008675818
0.0045249835
-0.01170931
-0.0014908
0.011362263
0.020840345
0.039884835
0.045401484
0.015050302
0.01649085
0.014680837
0.010872743
0.026634336
0.00497202
0.023080325
0.020563634
0.012676557
-0.007160324
0.011468581
0.0247363
0.020316802
0.019202199
0.048154734
0.0018080755
0.012195449
0.009991828
0.022920879
0.003168395
0.006325379
0.013997027
0.010294074
0.020249732
-0.0016419172
0.012624972
0.0333001
0.039425798
0.02627496
0.019808609
0.00032338675
0.011168264
0.0065602916
0.0017348344
-0.010941036
-0.008076805
0.011305606
0.005147185
-0.009596052
-0.019006267
0.0043219244
0.008370628
0.02773342
-0.00042356923
0.019721191
0.005152149
-0.0008152292
0.0110759605
-0.0036614675
0.00058567565
0.003082024
-0.010117213
-0.011352557
-0.0038989899
0.006126229
0.007789734
0.023211723
0.025183003
0.0053667575
0.019690258
0.017099572
0.0064708563
0.0172924
0.004786329
0.0043116277
0.009293114
-0.011185452
-0.0032274798
0.012349108
-0.007990771
0.019179538
0.002883853
0.012960113
0.0027984872
0.029012604
0.019532183
0.009683418
0.0033964338
0.00801017
0.015840467
0.010161845
-9.436204e-05
0.0028611699
0.017390998
0.01722435
0.017963234
0.028203044
0.002801144
0.00023320192
0.009340343
0.029449038
-0.014833331
0.0033095495
0.016055657
0.015717827
0.013441836
0.012790623
-0.0067477957
-0.014836125
-0.0057948763
0.00022483824
0.009135096
-0.0111151105
-0.019507462
0.02529097
0.009542648
0.024814546
-0.0018924744
0.0052822065
0.006299786
0.0047043636
0.006463555
-0.005596969
0.002309754
0.0136640705
0.0037538554
-0.016943384
-0.0062199375
0.023237586
0.023107927
0.02790405
0.03456928
0.044619545
0.002065036
-0.019712154
-0.003583768
-0.01401275
-0.016103769
-0.018215468
-0.0059188805
-0.019343657
-0.012413329
0.02482289
0.04135527
0.028535906
0.031696666
2.1517e-41
5.649e-42
-2.23e-42
-2.1821e-41
-1.78e-41
-9.068e-42
-1.353e-41
-2.2917e-41
4.0774e-41
1.7002e-41
-1.8609e-41
-1.6219e-41
1.7338e-41
8.245e-42
-4.6031e-41
-2.3912e-41
1.0606e-41
-2.2627e-41
-5.5255e-41
-3.0663e-41
1.0811e-41
7.753e-42
-6.9671e-41
-3.942e-42
1.2536e-41
-2.028e-41
-1.6425e-41
-2.1416e-41
-2.9448e-41
-7.2367e-41
-2.3053e-41
5.1405e-41
-4.4303e-41
-3.147e-42
1.0424e-41
6.5e-43
-4.822e-42
1.5748e-41
1.488e-41
-1.9645e-41
1.1419e-41
5.404e-41
-2.1144e-41
-6.241e-42
1.2544e-41
2.0623e-41
1.3043e-41
6.467e-42
5.6952e-41
2.5547e-41
2.218e-41
2.0362e-41
5.855e-42
1.3394e-41
9.459e-42
-7.606e-42
4.4233e-41
1.0267e-41
-1.3403e-41
-6.87e-43
-1.0636e-41
-1.5556e-41
-1.8643e-41
2.649e-41
1.5693e-41
-1.5173e-41
4.8774e-41
-7.047e-42
-1.4948e-41
3.854e-42
4.5022e-41
-2.0435e-41
-5.939e-42
-1.1154e-41
-1.5236e-41
8.968e-42
1.9117e-41
-1.7874e-41
2.0207e-41
4.2608e-41
3.3631e-41
2.4576e-41
-1.9621e-41
2.721e-42
2.1632e-41
2.2816e-41
-2.0252e-41
1.6149e-41
-1.8674e-41
-1.4051e-41
9.254e-42
-2.845e-42
1.5054e-41
-4.874e-41
-6.6583e-41
7.211e-42
-1.2116e-41
-1.9778e-41
1.8123e-41
1.5057e-41
1.5887e-41
9.847e-42
-6.068e-42
3.1056e-41
2.45e-41
-4.5354e-41
-1.5418e-41
6.3547e-41
1.4765e-41
-3.9348e-41
-3.7137e-41
-2.8193e-41
-2.9167e-41
-3.978e-42
3.5904e-41
1.9869e-41
2.9374e-41
3.4287e-41
8.303e-42
-4.19e-42
-1.4971e-41
-1.7934e-41
-7.5105e-41
2.3082e-41
9.07e-43
2.4223e-41
1.028e-41
2.374e-41
-6.143e-42
7.679e-42
-3.2663e-41
1.5947e-41
-1.592e-41
1.9938e-41
1.475e-41
1.459e-41
2.705e-42
-3.373e-42
2.326e-41
5.8901e-41
2.1745e-41
-1.7812e-41
-8.895e-42
1.209e-41
-2.5184e-41
-6.711e-42
2.68e-43
6.121e-42
-9.616e-42
-3.6306e-41
-4.29e-43
-2.6407e-41
-4.5483e-41
1.7399e-41
8.706e-42
-1.9544e-41
9.396e-42
2.4945e-41
-2.3937e-41
-1.2165e-41
1.033e-41
5.5917e-41
-1.7365e-41
8.081e-42
1.8326e-41
2.4369e-41
-2.641e-41
7.937e-42
-1.984e-41
8.992e-42
-1.49e-42
7.292e-42
-3.6497e-41
-1.5014e-41
-1.6405e-41
-6.2313e-41
-1.6657e-41
3.1116e-41
4.665e-42
-2.4772e-41
1.7802e-41
-6.6358e-41
-1.3333e-41
-6.7806e-41
-1.8406e-41
1.7851e-41
-9.044e-42
-1.834e-41
2.7582e-41
6.56e-43
-9.156e-42
7.8249e-41
-3.0201e-41
1.3799e-41
-2.8556e-41
1.0224e-41
2.7105e-41
-1.5908e-41
-2.5378e-41
2.9562e-41
2.3692e-41
5.466e-42
4.3042e-41
-3.3036e-41
-3.315e-42
1.7913e-41
-3.925e-42
-4.226e-42
-2.47e-41
2.5263e-41
2.7768e-41
-1.8951e-41
2.964e-41
-2.3994e-41
2.014e-41
-2.573e-42
-1.2188e-41
-3.1355e-41
5.0898e-41
4.57e-42
2.2998e-41
2.8446e-41
1.927e-42
4.7709e-41
1.579e-42
-0.0408887
-0.04097166
-0.042101618
-0.026039686
-0.023058947
-0.025332717
-0.020106891
-0.017731888
-0.000811855
-0.021213612
-0.01579189
-0.034091476
-0.036679436
-0.060092926
-0.06862476
-0.04049192
-0.026297245
0.012081673
0.010998225
0.00810396
-0.020516507
-0.016535087
-3.4672576e-05
-0.0072333645
0.0021426533
-0.0062781195
-0.013521376
-0.0045493282
-0.032552887
-0.046029538
-0.008655665
-0.002203499
0.0015458784
0.004105676
0.007816731
-0.006873912
-0.011888506
0.00042457905
0.0045499625
0.015465056
0.014042214
0.006098333
0.0025420047
0.010486626
-0.031758957
0.022898752
0.019006053
0.0058434494
0.003719018
0.012211947
-0.008510342
-0.009329365
0.0027483164
-0.003215562
-0.0050941505
-0.014682386
0.01549407
0.026308853
0.013817253
0.009101689
0.03577792
0.017826356
0.009919148
-0.010328109
-0.024379415
-0.02572027
-0.010933822
-0.016935444
-0.005003946
-0.024735475
-0.01758137
-0.0055753933
0.0029255778
0.040510923
0.030243648
0.015762169
0.027862364
-0.009960151
-0.02210333
-0.02613385
-0.008015746
-0.011129163
-0.014860403
-0.021234857
-0.018125147
-0.01684337
-0.011066494
0.015487001
0.03058573
0.064466804
0.023028268
0.025986597
0.02250588
0.006919001
0.004217295
-0.0015897774
0.0032691064
0.01051376
-0.015622909
-0.02479056
-0.006730828
0.0039901845
0.019929888
0.015175572
0.052515164
0.016438376
0.011316681
0.032296438
0.008322151
0.017523693
0.0057584387
0.0065115974
0.0009401884
-0.008501524
0.0011312758
0.015686039
0.035537038
0.0344329
-0.0064438367
0.009345265
-0.030809455
-0.0027239297
0.0006342408
0.012944621
-0.0041923276
-0.012805487
-0.013950842
-0.017726183
-0.033845108
-0.026582267
0.0074359286
0.014222645
0.024137057
0.0004328092
0.0120695885
-0.04247005
-0.0060492964
-0.0062378566
-0.012593743
-0.016388547
-0.038009655
-0.031744923
-0.01962346
-0.044567116
-0.015110812
-0.006145453
0.0037689551
-0.0019160901
-0.0063179624
0.017687006
-0.019332457
-0.018972702
-0.0021468312
-0.0085149165
-0.0054568467
-0.01151122
-0.017001497
-0.018159851
-0.029596439
-0.012361084
-0.007908998
-0.015145694
-0.022167576
-0.01830604
0.014143572
-0.030563816
-0.03096341
-0.0048902286
-0.011079522
-0.012921101
-0.01970382
-0.0037568016
-0.023694035
-0.027110036
-0.022701964
-0.0051935986
-0.009091446
-0.026616741
-0.007122218
0.0074973535
-0.027675856
-0.025808835
-0.007398177
-0.0020599565
-0.0037434013
-0.008219965
-0.0057506273
-0.011900562
-0.0134354
-0.0148760965
-0.022369813
-0.029691985
-0.031187654
-0.004992401
-0.00052421616
0.0051431456
0.0038044122
-0.024183173
-0.01015635
-0.0069977907
-0.012937782
-0.0119299395
-0.02273381
-0.009017898
-0.0105945505
-0.020924354
-0.011862493
0.001369719
0.022902336
0.033391662
0.03400087
0.050919525
0.021048611
-0.020323265
-0.014984694
-0.016913434
-0.026813986
-0.031244744
-0.012801521
-0.015068977
-0.007759273
0.008287732
0.044439934
0.054583438
0.0414992
-1.8479e-41
1.8769e-41
1.6203e-41
1.8634e-41
-1.5644e-41
-1.8738e-41
-5.098e-41
-1.4548e-41
-1.1038e-41
-2.5e-44
-1.4826e-41
-2.3301e-41
1.5575e-41
-2.4512e-41
-2.5085e-41
-1.1223e-41
2.8361e-41
-2.0983e-41
-5.415e-42
6.0438e-41
3.035e-41
-9.478e-42
1.75e-43
8.244e-42
-6.43e-43
-5.164e-42
9.861e-42
-2.0622e-41
2.4286e-41
-2.4056e-41
2.3863e-41
-5.5933e-41
-1.2373e-41
2.4884e-41
-1.0787e-41
-4.344e-42
-3.121e-41
1.5287e-41
-1.8087e-41
-8.743e-42
-7.204e-42
2.0511e-41
2.3455e-41
-4.184e-42
2.4841e-41
-1.4111e-41
-2.4809e-41
3.111e-42
-6.8325e-41
-5.96e-43
1.484e-41
-3.1706e-41
-7.882e-42
-4.4006e-41
-1.6743e-41
4.4008e-41
8.392e-42
-1.1016e-41
-3.3885e-41
1.424e-41
1.8193e-41
1.7033e-41
-3.5372e-41
-1.9383e-41
5.153e-42
-3.3921e-41
9.676e-42
-1.1527e-41
1.2408e-41
3.576e-42
2.905e-41
2.4371e-41
5.637e-42
2.3159e-41
3.16e-42
-1.904e-41
3.468e-42
-5.1716e-41
1.8455e-41
3.5287e-41
1.807e-41
-4.257e-42
3.0404e-41
-2.099e-41
7.552e-41
-6.893e-42
-1.4736e-41
9.403e-42
7.619e-42
-1.9226e-41
4.0356e-41
1.844e-41
7.329e-42
-2.7858e-41
-1.0462e-41
1.7864e-41
5.846e-42
4.5158e-41
-9.092e-42
3.5226e-41
-1.8919e-41
-2.7767e-41
6.7988e-41
-6.9137e-41
1.5644e-41
1.022e-41
9.754e-42
-1.4686e-41
-1.8182e-41
-2.808e-41
-4.766e-42
-2.8267e-41
-1.5078e-41
2.9741e-41
-4.368e-42
-1.9677e-41
-6.6549e-41
-5.9667e-41
-1.896e-42
3.795e-42
-1.167e-42
-2.846e-42
5.255e-42
4.64e-43
1.236e-42
-2.0348e-41
2.867e-42
-1.1664e-41
1.3305e-41
3.2004e-41
-4.1341e-41
6.3947e-41
2.7859e-41
-2.4273e-41
-8.199e-42
-2.442e-42
1.5504e-41
4.4805e-41
-4.1312e-41
-1.2263e-41
2.1087e-41
-4.6495e-41
-1.7993e-41
1.6277e-41
2.9043e-41
-2.9371e-41
-3.8358e-41
-1.733e-42
-1.4012e-41
-1.2392e-41
-8.003e-42
1.998e-41
2.095e-41
-2.6808e-41
-3.961e-42
-3.3043e-41
-1.708e-41
-2.1314e-41
4.026e-42
1.7281e-41
-6.928e-42
-2.9471e-41
-2.6057e-41
-1.1454e-41
1.6342e-41
4.5929e-41
-3.9619e-41
1.5475e-41
1.4857e-41
-2.85e-41
-3.2476e-41
-3.69e-43
7.4591e-41
5.783e-41
-2.847e-42
-6.359e-42
1.6401e-41
2.7041e-41
5.231e-42
2.3273e-41
1.9428e-41
5.579e-42
-5.77e-42
-8.578e-41
-2.0092e-41
-6.925e-42
1.1044e-41
1.9114e-41
-1.8319e-41
-2.0177e-41
-1.4188e-41
3.593e-41
-1.5518e-41
1.7672e-41
-7.582e-42
1.5346e-41
1.5644e-41
-4.7752e-41
1.4478e-41
1.5849e-41
-1.2854e-41
-9.6e-42
-3.1923e-41
3.4049e-41
1.3518e-41
-2.57e-41
-2.2422e-41
-1.4328e-41
1.8705e-41
3.2195e-41
3.376e-42
-3.1976e-41
3.2659e-41
-1.3018e-41
1.8155e-41
-1.5274e-41
-3.8178e-41
1.656e-42
-2.4677e-41
-3.807e-42
-1.4775e-41
3.245e-42
-6.524e-42
-1.8654e-41
-4.9715e-41
0.029079901
0.0302726
0.00900429
0.05297882
0.057175662
0.037379567
0.021060532
0.03292866
0.048034586
0.057580672
0.031313118
0.025166918
0.03239406
0.038703106
0.059092652
0.0220493
0.02107716
0.022556998
0.04679379
0.01855277
-0.007320903
0.010579071
0.010523842
-0.005625289
0.012560911
0.028912505
0.01921494
0.031479493
0.033543013
0.027753402
0.02307984
0.024394568
0.035766963
-0.017760968
-0.012442029
-0.0010164364
0.0058983713
0.02069266
0.009264756
0.008097929
0.013829443
0.0064141313
0.02451531
0.027055953
0.032605663
0.024632586
0.01500556
0.0071694353
0.0018106473
0.0058201547
0.009092981
0.017598476
0.006947803
-0.008622671
-0.020278273
-0.0014244105
-0.013184681
-0.009595072
-0.0050157052
0.0091613
0.0003994363
-0.0038150917
0.0040929927
-0.0022368669
0.0050353203
0.008972449
0.022572385
-0.0016453364
0.011675183
0.014942366
0.012110173
0.013564506
-0.016815627
-0.0068589915
0.016315825
-0.020895733
0.018899849
-0.014149032
0.027798612
0.0599048
0.05140776
0.018508669
0.021124702
0.021611692
0.037700478
0.040679377
0.026641598
0.03073489
0.00011744337
-0.0031014986
-0.006035974
-0.00032748102
0.0051217577
0.008286983
0.008643665
0.027217204
0.010424793
-0.011575125
0.011902147
0.02347417
0.013015589
-0.0017974849
0.03364122
-0.010404167
-0.023697415
-0.03308323
-0.035438076
-0.03195485
-0.016319137
-0.0097671375
-0.0026632878
-0.009696395
-0.019110965
-0.0058740117
-0.011076918
-0.022470472
-0.024844617
-0.016031398
-0.009936676
-0.012883012
-0.021535337
-0.015632236
0.0013601525
-0.014757903
-0.031118395
-0.014095145
0.017098973
-0.026688866
-0.009334935
-0.00069377804
-0.016871363
-0.022226525
-0.034821365
0.010600798
-0.011137446
0.039775506
0.022335723
0.007772135
-0.005233608
-0.017254332
0.0051752324
0.010721074
0.00571383
0.028799022
0.03222417
0.021498958
-0.006403214
0.0032315603
0.03129941
0.014116845
0.028479515
0.002529772
0.005346884
-0.008424202
0.011118967
0.008572255
0.04093345
-0.0065852483
0.011419942
-0.0004401358
0.013245174
-0.0064453203
0.00851895
0.034711882
0.032870058
0.02061261
0.043122035
0.019586127
0.015394883
0.03019105
0.041752476
0.055117697
0.043923106
0.031153124
0.032346938
0.010822153
0.008582476
0.01809898
0.015438404
0.034821443
0.04321398
0.03628815
0.029631164
0.0060320646
0.030409627
0.027717644
-0.034520302
0.00076717534
0.032943252
0.01206044
-0.0040347883
0.009538697
0.017411297
0.046599526
0.028704286
0.05003026
0.043815862
0.05569793
0.002200284
-0.009210973
-0.007910664
0.0044916347
0.006024291
-0.0024691236
-0.00087732717
-0.0015491978
0.005331187
0.027368734
0.029495705
0.014112953
0.03666164
0.041733008
0.018350396
0.0045946776
-0.00297675
-0.018431067
0.018073745
0.008950133
0.0006703441
0.023323966
0.014861455
0.04340146
0.025685713
0.020176997
0.030462576
-0.046195023
-0.035140872
-0.04123555
-0.019858353
-0.004272944
-0.009953939
0.00410938
0.0075090304
-0.007978083
-0.0011265947
-0.000444009
-0.0068313465
-0.018625902
-0.05213096
-0.03905749
-0.030895201
-0.033693966
0.0076599303
0.011600134
0.0009832033
0.0061002937
-0.016502818
-0.013253144
0.0004839135
0.0076373066
0.0043607354
0.010227487
0.008571883
-0.014873076
-0.03883186
-0.006814841
0.00610968
0.016911987
0.0047569955
0.017255904
-0.0016535204
0.011706019
-0.0010327782
0.015221541
0.0048455917
0.012243769
0.010084116
0.006994544
0.026101131
0.0042094393
0.017494056
0.024483683
0.018488228
0.0073762843
-0.0014097975
-0.0049661496
2.0895368e-05
-0.0033047982
-0.0047371313
-0.008290737
-0.011346904
0.010540183
1.590771e-06
0.033662442
0.01890868
0.050739963
0.010048063
0.01991633
-0.002474658
-0.01906203
-0.02563617
-0.019797
-0.016119732
-0.0076833162
-0.004825539
-0.023879591
-0.013617969
-0.007209537
0.030311063
0.053518917
0.023125876
0.028587485
0.009090369
-0.01179207
-0.021845184
-0.026623508
-0.0011020398
-0.013839265
-0.014386253
-0.015554567
-0.0073911874
-0.0002580538
-0.0061610863
0.03202038
0.04509591
0.022503236
0.022125602
0.0309536
0.011640223
0.014060988
0.013664773
0.013695823
0.01818332
-0.00905
-0.019820746
-0.010500451
0.015008574
0.02016778
0.026474625
0.028237289
0.016072702
0.005960611
0.017469514
0.011878754
0.0066135903
0.02013443
0.007863002
0.006990549
0.011526621
-0.003213038
0.0068880245
0.024092674
0.031526174
0.023636658
0.023420816
-0.008156323
-0.009546838
0.014224985
0.008930223
0.0042597563
-0.015359765
-0.011714892
-0.011798192
-0.026958596
-0.020711355
-0.012869206
0.0018064403
0.012547549
-0.001650623
0.0047728242
-0.013223059
-0.0064769653
-0.010733191
-0.007826392
-0.011090337
-0.003605997
-0.023514146
-0.022558352
-0.025060644
-0.018228715
-0.017820146
-0.0075417706
0.002059685
-0.0048037344
0.009590919
-0.01803335
-0.010286731
0.004470465
-0.015028037
-0.012580364
-0.0039402307
-0.0061295815
-0.008810396
-0.02354586
-0.012375496
-0.015601778
-0.0027387699
-0.0040707053
-0.021010332
0.012601187
-0.018741539
-0.026516192
-0.0062181754
-0.00018002455
-0.012490904
-0.009465514
-0.0056887507
-0.019236036
-0.013199485
-0.008616131
-0.009163928
-0.007278641
-0.017051727
-0.017457867
0.005779333
-0.019258892
-0.0056370143
-0.020502143
-0.011158243
-0.010860346
0.0035410638
-0.012486454
-0.0008235832
-0.0070687546
-0.007062161
-0.0037161687
-0.006723467
-0.016253762
-0.01239904
0.014439865
0.021881582
0.020987514
0.012555959
-0.009307058
0.0036359073
-0.0079845525
-0.026417635
-0.0047418815
-0.01412315
-0.0033613215
-0.019407807
-0.026825583
0.0013727286
0.032624684
0.034177758
0.048448835
0.042889513
0.04050216
0.016367128
-0.010959775
-0.021304913
-0.017956657
-0.014452373
-0.018872134
-0.018166943
-0.024941208
0.013714162
0.017840827
0.051808424
0.047056086
0.058584347
0.04921815
0.043154534
0.042026635
0.015394161
0.018351072
0.022927554
0.023062173
0.013460077
0.020476744
0.034017123
0.027815973
0.008433692
0.034038905
0.03195152
0.04190981
0.02593518
0.03209255
0.011273708
-0.003311519
0.019354613
0.013958611
0.01804397
0.018827865
0.005059063
0.0051941564
0.008625763
0.0139844855
0.019639226
0.018907743
0.0119021535
0.0046007633
0.019591033
-0.0051107444
-0.0020742994
-0.01032079
0.017285619
0.0067752874
0.018807663
-0.0010409951
0.0030321106
-0.0048926333
-0.007924717
1.4965844e-06
-0.010566241
0.002109296
-0.0069732564
0.002007197
0.008894979
0.026255857
0.021830732
0.027064454
0.029310632
0.025176574
0.02517124
0.032352917
0.024498066
0.00883521
-0.0024706714
-0.007670943
-0.008972899
0.00070453854
0.003503081
0.017516365
0.05478816
0.034753416
0.04347138
0.037675668
0.033593938
0.027288768
0.037459824
0.029688315
0.030796425
-0.006400233
-0.01565282
-0.016135857
-0.015734944
-0.0023260652
0.0020722852
0.014428132
0.03234956
0.031054983
-0.005999287
0.0031306318
0.027590202
0.02706379
0.018717464
0.019669587
0.0009997344
-0.027791694
0.010442691
-0.0055625685
-0.009253848
-0.0054667783
-0.022591889
0.011999452
0.016613355
-0.0009156667
-0.022418015
0.0012399805
0.00057026744
-0.009063235
-0.014906142
-0.0014664723
-0.025698528
0.023845559
0.02744202
-0.0077556116
-0.018784786
-0.024758523
-0.0045767114
0.0015759933
0.014318994
-0.0011721216
0.014636693
0.0029340796
0.0037817538
-0.027678229
0.00687295
-0.0017996291
0.046607025
0.03167811
0.015153129
0.018841475
0.0033981006
0.030650973
0.036331747
0.023767212
0.024729712
0.034725517
0.024627462
0.025814649
0.0019947335
0.019486735
0.019289551
0.03926699
0.022095235
0.03775631
0.00911534
0.010439126
0.01755264
0.048740204
0.033803068
0.0031219407
0.036907937
0.026632646
0.01779044
0.023519445
0.04570298
0.0008546693
0.03704085
0.039501138
0.0319514
0.028613793
0.035444498
0.036175866
0.048160255
0.055596087
0.019545037
0.043359503
0.027666304
0.029055282
0.04023757
0.043769896
0.021092378
0.031294778
0.028874533
0.036336754
0.014907184
0.023431621
0.026651202
0.0056696623
0.015413731
0.035018705
0.020569738
0.024057053
0.037717924
0.039626896
0.03115477
0.03311107
0.035596147
0.041988526
0.025593732
0.026481407
0.008250834
0.03183522
0.01870499
0.024535693
0.03396495
0.027827315
0.044266906
0.043336876
0.02146402
0.020677121
0.0069971024
0.004718725
0.012041062
0.0061953412
0.029686246
0.017081933
0.0048091062
0.023492103
0.043017108
0.019214453
0.02589882
0.043219592
0.019890876
0.011664081
-0.0031720388
-0.010897936
-0.0096391
-0.0037312803
-0.021458672
0.003997835
0.0019178516
0.010890777
0.016375795
0.020828439
0.020204952
0.015711764
0.03485891
0.01860072
-0.0011219871
-0.024898589
-0.03193092
-0.0039648493
-0.011193709
0.027670689
0.026205659
0.0125688035
0.0072099315
-4.9449187e-05
0.013274713
0.02144736
0.02261864
0.02601814
-0.02375422
-0.024720712
-0.015822416
-0.02007455
-0.0026903225
0.016227145
0.03950304
0.021384303
-0.001133847
-0.022178488
-0.01760629
0.0113597475
0.014571859
-0.0087976325
0.0030215257
-0.024523601
0.0018495441
-0.018607419
-0.027775906
0.019032199
0.016810607
0.017514132
-0.01478735
-0.0014179838
-0.025051063
0.0027902592
0.0141384555
-0.004756684
0.004678822
0.0018393049
-0.0038008369
0.03542576
0.0026101004
-0.038930934
0.0220877
0.0016774312
0.002714022
-0.011728755
0.0007995506
-0.022430915
0.0011765661
0.011779472
-0.023199221
-0.01579948
-0.0059529273
0.007578954
0.04062642
0.01956822
-0.024783248
-0.007973573
-0.0047297194
0.0039580255
-0.02198549
-0.005782551
0.0021156026
0.009385999
0.010448992
0.0015574591
0.01132467
0.0107754385
0.015831154
0.058095656
0.0378221
-0.009083702
-0.012647616
-0.012463613
-0.016122462
0.0143559035
0.01538415
0.06702696
0.0522724
0.025772685
0.0037537215
0.042400103
0.04057568
0.026259674
0.03193487
0.03998913
-0.015602122
0.0120679615
0.007526785
0.0010757335
-0.0016308472
-0.028155273
0.019659378
0.014149699
-0.010518381
-0.020874353
0.015342332
0.020612482
0.036085654
0.017962074
0.011728614
-0.03376315
0.0027527814
0.009492849
-0.008857573
-0.020460023
-0.030535046
-0.014623407
-0.012987134
-0.007843241
-0.03322889
-0.011247532
0.0068538766
0.010639273
-0.032120127
-0.010342093
0.0030658878
0.012491284
0.009536433
-0.008746924
-0.03188058
-0.030354714
-0.031221291
-0.014739947
-0.024311975
-0.0483096
0.019605754
0.007871527
-0.002231426
-0.03392578
0.026950587
0.00055104593
0.02336812
0.012270016
0.016413637
-0.01069411
-0.0050779455
-0.022176279
0.003399586
0.0021458997
-0.018144885
0.045147065
0.013142708
-0.014834155
-0.02063608
0.046763483
0.024916807
0.012078045
-0.0067269034
0.015343339
-0.0057778275
0.0094946325
-0.00010007617
0.033262238
0.0067829615
-0.023187133
0.014848055
0.0038830123
-0.019274304
-0.006721055
0.03184923
0.015713202
-0.006474819
0.01596722
0.036113862
0.018297838
0.013579583
0.034735218
0.037278365
0.014020182
0.0038809641
0.027582671
0.016269466
-0.023547672
-0.0062244097
0.022863869
0.040987547
0.013787473
0.015356287
0.023172772
0.038744822
0.019954817
0.02138008
-0.019958235
-0.0146421995
0.022152402
0.00623878
-0.004440422
-0.026952093
0.009386926
0.05964791
0.056807783
0.05198508
0.036540646
0.011697839
0.013835444
-0.015846279
-0.0356812
-0.0024760142
0.017986115
0.024155749
-0.026413312
-0.012228267
0.032796487
0.05185675
0.047796845
0.0491798
0.052787416
0.048101034
-0.0071857753
-0.019039495
-0.003358276
-0.001910871
0.007835985
-0.008037505
-0.0056377323
0.010280672
0.04390324
0.04821796
0.077564955
0.05896326
0.04169113
0.057843976
0.03867025
0.051804643
0.031430945
0.04383655
0.047107995
0.049812704
0.050629124
0.056089595
0.039657693
0.041784804
0.027691592
0.04789688
0.07388903
0.065467365
0.037297968
0.02683013
0.029792782
0.04450089
0.0145443315
0.0042628716
0.016644076
0.012590272
0.0036950086
0.025318801
0.04065779
0.033527307
0.033638936
0.02536099
0.041577037
0.027331928
0.036918692
0.014204179
-0.02325318
-0.0059941323
-0.0030338743
0.0145833
0.015702209
-0.001077389
0.011378675
0.011268548
0.019005965
0.030690277
0.046435446
0.03507014
0.014551544
-0.0052918214
-0.005230433
-0.014317241
0.0041424055
0.008114774
0.017927274
0.0033268577
-0.01751453
-0.0077509508
0.0039251056
-0.0022869578
0.002952948
0.001284045
0.027436504
-0.015223191
-0.0027717517
-3.0033214e-05
0.0060294988
-0.00075500994
0.009248101
0.022086283
0.0041547935
0.009707558
0.03247972
0.026089393
0.0025344659
-0.0006402822
-0.0080112815
-0.0121554695
-0.008165972
0.001177589
0.011244752
0.044189848
0.04943953
0.039391294
0.041983634
0.028521204
0.03953619
0.025297824
0.030841686
0.03758158
0.025492633
-0.011470227
-0.0191756
-0.017857179
-0.014724832
0.0022590647
0.0063686776
0.002807983
0.009482597
0.013095295
-0.002734784
0.012026385
0.020749096
0.025740592
0.025726086
0.0083824005
-0.018226584
-0.041035917
-0.031690303
-0.022900967
-0.036598306
-0.016380543
-0.0030547413
-0.0017110736
0.0077976356
-0.020187406
-0.015593044
-0.009000979
-0.009470125
-0.017436039
-0.02961278
-0.014795397
-0.013850656
-0.012444839
-0.0055431724
-0.020890571
-0.012374564
-0.02689326
-0.026548492
-0.010306822
-0.026387705
-0.008726795
0.001165957
-0.011711777
-0.01327117
-0.019502323
0.00028393077
0.0011513815
0.046968944
0.04375409
0.024171779
0.0036371876
0.018293336
0.02236353
0.026439816
0.0071718204
0.045569833
0.044920553
0.01884575
-0.014996554
0.009985074
0.026873032
0.009107539
0.022015836
0.035114
0.029464168
0.018990777
0.0025231333
0.028016292
0.027988765
0.0018656817
0.015049749
0.005765009
-0.006625068
0.0017929338
0.03657072
0.028316708
0.024723353
0.048894558
0.033765435
0.039495766
0.03470444
0.03277851
0.03806979
0.049189482
0.02976483
0.036499657
0.019083574
0.008662606
0.027269881
0.034275416
0.015005903
0.03209196
0.04360286
0.053708177
0.0341312
0.018404016
0.036691494
0.007954511
0.0037631576
0.021170922
0.03374119
0.0067630145
0.025193144
0.02104755
0.027573744
0.027085967
0.03152399
0.0483276
0.041664556
0.03584679
0.0079551255
0.0062987027
0.0041336874
0.015907088
0.0140188495
0.009790449
0.02471741
0.024728054
0.028709365
0.044679243
0.029550834
0.023546215
0.019693542
0.02214944
0.023835914
0.013073852
0.018397978
0.014735921
0.019942017
0.017638592
0.0022216744
0.026224788
0.030838603
0.04216217
0.02522372
0.02231413
0.016884115
-2.5295e-41
5.2242e-41
2.1556e-41
7.744e-42
1.5348e-41
3.8107e-41
-1.6862e-41
1.5145e-41
2.702e-42
-1.5622e-41
7.623e-42
-6.345e-42
3.5572e-41
8.088e-42
1.1358e-41
2.2751e-41
1.7586e-41
4.8251e-41
-3.2516e-41
-4.051e-42
2.4893e-41
-1.638e-41
1.4529e-41
6.673e-42
-5.611e-42
-1.2424e-41
-4.7e-43
5.65e-43
7.804e-42
-4.5467e-41
1.7897e-41
-4.0397e-41
3.073e-41
1.0377e-41
-2.6606e-41
1.5557e-41
-2.3917e-41
5.3698e-41
-4.909e-41
-1.0414e-41
-8.706e-42
-1.7543e-41
5.153e-42
7.346e-42
3.112e-41
-2.228e-41
-2.9003e-41
8.87e-42
-1.72e-41
-3.5789e-41
1.4012e-41
-8.293e-42
-4.264e-42
1.9166e-41
1.5238e-41
1.699e-41
3.8031e-41
1.7268e-41
-1.3116e-41
1.5187e-41
-2.046e-41
4.0353e-41
7.0483e-41
1.3422e-41
1.7064e-41
1.9443e-41
8.803e-42
4.8785e-41
3.265e-42
-1.8088e-41
1.225e-41
1.1437e-41
-3.46e-42
2.1119e-41
3.8529e-41
-6.112e-42
-1.5454e-41
-2.506e-42
-5.0393e-41
-1.6719e-41
9.82e-42
1.247e-41
-8.664e-42
3.657e-41
-2.183e-42
-3.333e-41
2.5592e-41
-2.4915e-41
5.584e-41
-8.461e-42
1.8735e-41
1.6355e-41
1.6509e-41
-2.5534e-41
1.9275e-41
4.584e-42
2.27e-43
-1.1425e-41
2.3856e-41
7.374e-42
-4.1e-43
3.8957e-41
4.189e-41
2.1314e-41
-2.8648e-41
-9.274e-42
1.8143e-41
1.5217e-41
-4.507e-42
2.0657e-41
7.208e-42
1.4984e-41
2.9014e-41
-1.127e-42
4.6222e-41
6.197e-42
3.21e-43
3.1781e-41
-2.1193e-41
1.3108e-41
2.6386e-41
-3.042e-42
1.6231e-41
2.5574e-41
7.75e-42
2.965e-42
1.59e-41
-2.7917e-41
2.1427e-41
2.6382e-41
-3.3153e-41
-1.6112e-41
7.13e-43
-7.997e-42
-1.5486e-41
-1.7588e-41
4.7183e-41
2.456e-42
-2.5631e-41
3.5697e-41
1.9826e-41
1.6534e-41
-1.7345e-41
-2.1043e-41
6.433e-42
1.7118e-41
3.8433e-41
1.187e-42
2.1807e-41
1.5783e-41
-1.5512e-41
-2.9736e-41
-1.0929e-41
3.2418e-41
1.4379e-41
-2.025e-42
-2.0373e-41
4.441e-42
-1.7638e-41
-1.3104e-41
-1.9194e-41
-1.0801e-41
-1.9845e-41
-1.8892e-41
8.712e-42
1.8728e-41
1.5476e-41
-1.4316e-41
-1.2592e-41
-1.862e-42
3.8192e-41
1.2827e-41
-2.0232e-41
-2.0742e-41
-2.7303e-41
-7.278e-42
-4.8706e-41
-3.7821e-41
-2.2676e-41
-2.0938e-41
-1.506e-41
2.3905e-41
-3.2725e-41
-8.72e-42
-1.714e-41
-3.1658e-41
3.7444e-41
2.2338e-41
2.49e-42
1.5774e-41
-8.647e-42
-1.1506e-41
-2.5581e-41
1.2951e-41
3.683e-42
4.27e-42
-4.897e-41
-1.2913e-41
-7.97e-42
1.8684e-41
-1.1819e-41
1.5262e-41
-8.502e-42
-2.1168e-41
4.85e-42
-1.8414e-41
2.3924e-41
-5.871e-42
8.013e-42
1.156e-41
-2.145e-42
2.878e-41
-1.9753e-41
-4.8924e-41
2.75e-42
-1.6862e-41
1.8852e-41
2.968e-41
-2.0341e-41
-2.0515e-41
-3.152e-42
8.332e-42
5.4097e-41
-2.6636e-41
2.133e-42
-0.034936637
-0.039366372
-0.017161852
0.014370255
0.009774293
-0.0024910187
-0.007935417
-5.95714e-05
0.02247498
0.029232526
0.019508086
0.028154857
0.023522146
0.0036367238
-0.0275294
-0.012009806
-0.028674785
-0.012192883
-0.0029346268
-0.0010597575
-0.0067050434
-0.015268117
-0.023538584
-0.010299315
0.004183603
0.014323917
0.00397434
0.018342648
0.030443588
0.0039559035
0.026870951
-0.0022786781
-0.019937344
-0.012745452
-0.004170627
-0.0009551501
-0.015034443
-0.010616917
-0.002084203
-0.0030937986
0.006634535
0.0105805835
0.018332941
0.040955383
0.025003292
0.067098305
0.030392976
0.019857131
0.009921834
0.004339442
0.0045591826
-0.019904599
-0.02235089
-0.014173687
-0.018566053
-0.016404673
-0.017922085
-0.006592545
0.03266665
0.039831664
0.0367021
-0.0044365204
-0.0062463186
-0.009298918
-0.017513825
-0.003316301
-0.0015261488
-0.007918004
0.0018250113
-9.322028e-05
0.009453744
-0.013676936
-0.018736612
0.013229926
0.054391123
0.016136633
0.029405167
0.018207818
0.036895882
0.046777975
0.02442629
0.043912325
0.044026624
0.013146394
0.009099392
0.029276168
0.032424815
0.014518881
0.008342216
0.0357387
0.0045253504
0.018336795
0.0154000325
0.008663535
0.018707842
0.007817924
-0.009639645
0.006435367
-0.004046898
0.0077902908
0.01553819
0.016731832
0.01452257
-0.012332689
0.018707296
-0.041464075
-0.03248959
-0.016845409
-0.0039019077
0.0073872963
0.0148157375
-0.01180396
-0.0009890196
-0.03843752
-0.023826413
-0.0067371787
-0.000908934
0.03242018
-0.015022275
0.005188234
-0.051039636
-0.051519886
-0.03964607
-0.039418865
-0.036678653
-0.027582558
-0.027773555
-0.011465792
-0.036702048
-0.06485266
-0.030620188
-0.019560153
0.022110624
-0.008421246
0.008281493
-0.006139405
-0.024664488
-0.022060595
-0.014092171
-0.010252599
-0.010388098
-0.025559722
-0.0070378706
-0.0042566704
-0.018116111
-0.0016890774
-0.008609123
0.012455776
-0.01614472
0.040081248
-0.026608491
-0.017342351
-0.036010083
-0.019742776
-0.0042360374
0.00815726
-0.0036609464
-0.007401948
-0.007983352
-0.025098588
-0.008660276
0.0034968709
0.013200497
-0.028239833
0.011861863
0.0038763988
-0.023592966
-0.028674845
0.002928928
0.00024554913
0.0026065109
0.025593113
0.023790197
0.02092478
0.0010599139
0.00903113
-0.0010925432
-0.004119476
-0.014620344
0.011538723
0.018561129
0.019749088
-0.03193924
-0.01680775
0.007224259
-0.008065912
-0.012655128
0.0012816782
-0.0027728775
0.012375679
-0.000543815
-0.0012562925
-0.014543024
0.012730955
0.05325134
0.06595606
0.05416421
0.03845752
-0.02431148
-0.033097785
-0.008764462
-0.015790494
-0.019540198
-0.013812054
0.0031844685
-0.030479036
-0.0042705326
0.01976
0.045277815
0.04788107
0.08571521
0.06947456
0.07003652
0.017256854
-0.017779447
-0.014411271
-0.0037655432
-0.016379835
-0.026399426
0.012761106
0.052886125
0.014409817
0.043241113
0.08161402
0.05541653
-0.024979046
-0.038877264
-0.016789433
0.010506137
-0.0048152236
-0.004141266
-0.006127404
-0.021466983
-0.012284855
-0.003991208
-0.012337655
0.021694964
0.0051822998
0.0015454438
0.014610501
-0.030915778
-0.028331675
-0.03139542
-0.013077688
0.011577501
0.011680557
0.00755084
-0.0128749
-0.023251623
-0.011990526
-0.025738435
0.014723511
0.014458665
0.019412624
0.016058138
-0.027615277
-0.009984147
-0.027098764
-0.0036296255
0.008195164
0.0030244389
-0.032759454
-0.04913683
-0.020442894
-0.008439865
-0.015273145
0.00096999534
-0.013202335
0.007924874
-0.002848612
-0.013524323
-0.020492034
0.0040087285
0.013975517
0.012967048
0.035649765
0.020993458
0.010706297
0.040027477
0.012472896
0.0095444955
-0.007847257
-0.004892516
0.008655633
0.001272614
-0.012453067
0.00923141
0.018457975
0.03576471
0.04378773
0.041254476
0.040686846
0.03205259
0.02367617
0.032735877
0.018636825
0.024786714
-0.0010898466
-0.0074921264
0.010269621
-0.002756918
-0.021147337
0.011426509
0.0075384853
0.0037032096
-0.009408918
-0.023643028
0.0050223223
0.016253926
0.0049525234
-0.003072396
-0.019705892
-0.023016684
-0.012501993
0.019391412
-0.0032393169
-0.014804606
0.0025675802
-0.0011714963
0.033102997
0.015112701
0.0067019253
0.01955085
0.008925799
0.00104473
0.0019718595
-0.009510073
-0.0035814927
-0.001260225
0.024112983
0.005382747
0.008648739
-0.02283495
-0.018318363
-0.017204193
-0.019005578
-0.020238642
-0.012814081
-0.026814207
-0.029046854
-0.028933184
-0.051273085
0.0030960725
0.0042404463
0.010575032
0.03512562
0.0036626756
0.00058532564
-0.0056990194
0.009735157
0.027461262
0.011915011
0.04180619
0.043312114
-0.0012582842
0.012860354
0.006858033
0.047477808
0.020790989
0.026403315
0.0023533478
-0.008452453
-0.018221239
0.007377067
0.022385484
0.026541634
0.014911835
0.006036135
0.023324588
-0.04239957
-0.013452749
0.01157998
0.045712866
-0.018666925
0.022616467
0.019753216
-0.006960416
0.011199318
0.015630467
0.013129451
0.02588362
0.0076641594
0.021865431
0.022292305
-0.008366892
0.00257359
0.013756962
0.032745264
0.010270932
0.0115124155
0.02306697
0.0064504105
0.006068653
0.011153643
0.018967219
0.017519856
0.0069351504
0.008222005
0.007143266
-0.01452034
0.014080579
0.015380177
0.009523098
0.0051090117
0.0036979367
0.028675163
0.029017061
-0.0041100574
0.0062895194
0.0017675948
-0.01784369
0.013513731
0.027986301
0.0051544798
0.0063009365
0.02927104
0.004740032
-0.009403809
-0.009165727
-0.007213644
0.0035313684
0.026635129
0.018826269
-0.00045595318
-0.0040401523
0.028168619
0.025322687
-0.008553943
-0.003901311
0.047405243
0.014152474
0.0010349689
-0.041162882
-0.017117867
-0.010744355
0.009366284
0.00093446847
0.016303938
-0.0023786875
-0.019753683
0.005037142
0.0033796912
0.0008573456
-0.0025977732
-0.011326083
-0.0268197
-0.035571083
-0.050483875
-0.0036573594
-0.018500721
-0.04392948
-0.045442678
-0.033694476
-0.020838859
-0.011812672
-0.0058689266
0.0032392712
-0.010233065
0.0026991758
-0.00397202
-0.011558869
-0.009683669
-0.025700811
-0.04989075
-0.052679893
-0.040191494
-0.01679584
0.013678358
0.024974452
0.01209569
0.010131884
0.00858382
0.009831554
0.0016423399
0.017125957
0.014567136
0.005304918
-0.0018822949
-0.015942048
-0.025462404
-0.01069391
0.013725481
0.02054899
0.007815527
0.0105550205
0.013303512
0.00817221
0.00018386563
0.010778953
0.015216913
0.018533038
0.010833932
0.011249835
0.002508666
-0.029463109
0.01722416
0.028495016
0.022910215
0.007462485
0.00599847
0.010941832
-0.012681527
0.0063101156
-0.0050218003
0.002969275
0.008484214
0.0062913434
0.026949089
0.038301196
0.011558775
0.028196761
0.024406493
0.004390719
-0.016923547
-0.02196641
-0.003901613
-0.02170149
-0.005560364
-0.014427219
-0.023195272
-0.0022493852
-0.011651334
0.021534912
0.03290595
0.03838343
0.03398995
0.022009708
-0.0012324385
0.0014622491
-0.014846376
-0.013695941
-0.002379123
-0.0039960104
-0.008061117
-0.008412801
-0.008499105
-0.0008627482
0.022874758
0.030870914
0.03985823
0.015876377
0.035293717
0.026360929
0.018799443
-0.0072221844
0.0031050416
0.012410394
0.010095199
-0.00467727
-0.0006595056
-0.0062948135
0.00804832
0.023223002
0.020212822
0.024634074
0.013646888
0.016277492
0.02663732
0.015463476
0.003401032
0.01399474
-0.001868374
0.019539868
0.008690016
0.008409121
0.0060507217
0.022124294
0.04237212
0.009781963
0.017493945
-0.019488567
0.011346514
0.020496996
-0.001950743
-0.006719163
0.0030185448
-0.0098127965
0.0036967176
-0.026789133
-0.01495851
-0.0053591467
0.010708436
0.006482307
0.008018956
0.02189282
-0.011200552
0.0055751125
0.011517288
-0.011506535
-0.007011203
-0.009471886
-0.0275941
-0.011151052
-0.015838493
-0.013070944
-0.0050219567
-0.0030589409
0.009323877
-0.008623075
0.0054023066
0.00030505977
0.0025675006
-0.004203187
-0.01043551
-0.012620098
-0.01105327
-0.013410813
-0.0025576563
-0.031072898
-0.0031408435
-0.012893191
-0.013849351
-0.009522757
-0.008990281
0.01860591
-0.013915073
-0.016934229
-0.004457722
-0.008410999
-0.01444954
-0.012838258
-0.008532727
-0.0067333863
-0.029577691
-0.012479277
-0.008808476
-0.007812999
-0.023175912
-0.01017185
0.0037897644
-0.00026657624
-0.014602345
-0.008485931
-0.0032648141
-0.0072480496
0.009884726
-0.0099684335
-0.006356925
0.0021158776
-0.0090629365
0.0017972295
-0.0056166262
-0.012791176
-0.0057942187
0.006034873
0.019795017
0.027348816
-0.005124078
-0.016292613
-0.0064167613
-0.018534323
-0.010981083
-0.021760032
-0.020422045
-0.021877375
-0.009838194
-0.013952506
0.01349838
0.029491441
0.021257069
0.04283677
0.05635504
0.02314737
-0.015297922
-0.004076389
-0.0062715886
-0.01682661
-0.0020346371
-0.013654922
-0.012057364
-0.010095402
0.01330708
0.04158124
0.056360576
0.039542627
-0.049578696
-0.054343395
-0.033764485
-0.010027038
-0.00086474296
-0.007873893
-0.011886648
-0.020003518
-0.010461341
-0.008298985
-0.0008697506
-0.014512066
-0.04376288
-0.06049972
-0.06408201
-0.036436893
-0.027717996
0.0013562632
0.011753086
0.016540548
-0.018999005
-0.02043415
-0.017480642
-0.008653973
0.009377379
-0.007599704
0.00030098506
-0.008301987
-0.018229455
-0.05243046
-0.0070800567
0.0076912986
0.004034883
0.0030421936
0.00964471
-0.0026419198
-0.008071481
-0.007177541
0.0077882777
0.004168093
0.009118745
0.012731176
0.016347995
-0.0037099833
-0.010667312
0.033306904
0.010673649
0.01943135
0.011570965
0.0060720406
-0.0038677545
-3.6830992e-05
0.0006587161
0.002867299
-0.0042502196
-0.012998452
0.0158252
0.022780936
0.035025448
0.020212743
0.031343017
0.014266249
-0.0014253668
-0.010791324
-0.013564989
-0.022594506
-0.01911576
-0.010976346
-0.020146988
-0.019512633
-0.025845004
-0.018299354
-0.0006696584
0.024146164
0.05188231
0.020262875
0.02010111
0.000917623
5.678518e-06
-0.0047099832
-0.018766813
-0.008081004
0.00044068045
-0.02366375
-0.022414135
-0.0038474132
0.003441129
-0.0025719265
0.022571301
0.039455026
0.019159026
0.028204344
0.03633511
0.026719358
0.0010279117
-0.01306749
0.0085332645
-0.0030047093
-0.0021285203
-0.009425747
-0.008569387
0.005858965
0.015060873
0.03000506
0.038570013
0.012473895
0.01683101
0.019704498
0.033146594
0.0037287246
0.0075996094
0.012785022
0.003520618
0.0042810747
-0.006572327
0.020351322
0.026194746
0.03736318
0.0065386617
0.020307323
-0.022063065
0.005201623
0.014512792
0.0030050413
0.0062232134
-0.016598321
-0.0004045107
-0.01370836
-0.03263728
-0.01820798
-0.01776953
0.010173686
0.01350716
-0.00413841
0.005855037
-0.03284801
-0.025006406
-0.0031227574
0.0010500345
-0.019386865
-0.022138715
-0.017533448
-0.0121427085
-0.034178406
-0.014648282
-0.009064149
-0.005403285
-0.0083558215
0.0031830773
0.0058504813
-0.020820746
-0.026143124
-0.0070834327
-0.00057053415
-0.0092832865
-0.014843004
-0.025211016
-0.008845827
-0.018020239
-0.029878635
-0.011560157
-0.002476166
-0.028137667
-0.01897362
-0.0053995214
-0.04094529
-0.020723652
-0.005940591
-0.010114823
-0.01113217
-0.020015812
-0.00017736273
-0.010070563
-0.013228363
-0.01813123
-0.0027179846
-0.005587157
-0.03257947
-0.0063667484
-0.0033170008
-0.0107323695
-0.03314104
-0.011589547
-0.012463014
-0.0033481044
-0.012020704
-0.015576586
-0.020045377
-0.008327154
-0.010949408
-0.027445309
-0.022143386
-0.016287537
-0.0014961006
0.011160786
0.023821773
0.026695045
0.0052830875
-0.017282447
-0.013344865
-0.009389634
-0.019006379
-0.016199604
-0.008059043
-0.009078125
-0.021106761
-0.028714411
0.0032446142
0.030527515
0.043887842
0.044424687
0.05811244
0.017499253
0.00740862
-0.010501907
-0.013132553
-0.02318469
-0.009659471
-0.024611302
-0.012486271
-0.005700864
0.018192355
0.039804786
0.055517506
0.05001266
-6.928e-42
2.4796e-41
-1.3961e-41
-6.8112e-41
-1.7026e-41
2.0121e-41
3.77e-42
-1.172e-41
-3.625e-42
-2.2852e-41
-2.9888e-41
1.1903e-41
2.1616e-41
-8.966e-42
3.205e-42
2.577e-42
1.1541e-41
1.8008e-41
-1.707e-42
2.5691e-41
-1.0098e-41
6.4e-42
-1.4023e-41
2.0128e-41
1.2113e-41
1.0758e-41
2.7506e-41
1.2652e-41
-4.61e-42
-1.9953e-41
-1.9112e-41
-2.2843e-41
2.8395e-41
3.2811e-41
4.5238e-41
-2.3012e-41
-2.1668e-41
-7.448e-42
1.177e-41
-2.988e-41
-1.033e-42
6.1695e-41
1.8927e-41
5.26e-42
3.0645e-41
9.222e-42
3.7092e-41
-1.2948e-41
-3.6337e-41
5.9468e-41
-1.8555e-41
2.3266e-41
9.096e-42
9.837e-42
-2.4052e-41
-2.0058e-41
-1.9929e-41
1.1338e-41
-1.9108e-41
3.1172e-41
1.7515e-41
1.0654e-41
-8.7e-44
-6.176e-42
-2.4003e-41
-1.5588e-41
1.9727e-41
-1.369e-42
1.8983e-41
2.1706e-41
-1.2687e-41
-2.4786e-41
1.2624e-41
-1.4187e-41
-1.0524e-41
-3.4812e-41
-1.2863e-41
-1.2757e-41
3.8733e-41
3.376e-42
5.3525e-41
1.8543e-41
-1.3755e-41
1.6943e-41
-1.8591e-41
-7.0466e-41
-4.55e-42
3.748e-42
-8.474e-42
-2.686e-42
-1.5154e-41
-1.607e-41
-5.978e-42
1.377e-41
-1.398e-41
2.2009e-41
3.4214e-41
-2.084e-42
-9.389e-42
1.3873e-41
-1.5414e-41
1.7994e-41
-7.69e-42
5.682e-42
-4.0066e-41
2.2694e-41
-7.355e-42
8.02e-43
-1.8315e-41
-2.9028e-41
-3.3853e-41
1.5529e-41
1.857e-42
2.725e-41
1.1723e-41
2.0208e-41
-1.2015e-41
2.1311e-41
-6.2375e-41
9.047e-42
6.7966e-41
6.4e-43
-3.9434e-41
-3.388e-41
1.904e-41
-1.7812e-41
2.3404e-41
-8.234e-42
2.121e-41
-1.9004e-41
2.0383e-41
-3.8653e-41
3.0918e-41
-1.9856e-41
-1.253e-41
1.363e-42
9.976e-42
-1.8717e-41
-2.1059e-41
1.3371e-41
9.026e-42
-5.786e-42
2.476e-41
-1.7827e-41
1.6722e-41
1.7477e-41
7.525e-42
-4.1436e-41
8.168e-42
-8.98e-43
-8.723e-42
-2.075e-41
-1.6207e-41
-9.96e-43
2.603e-41
-1.0196e-41
-1.9632e-41
-3.3296e-41
4.92e-42
-2.396e-41
1.8375e-41
3.9836e-41
-6.77e-42
9.969e-42
1.2222e-41
9.058e-42
3.0229e-41
-4.5595e-41
1.2996e-41
2.0015e-41
1.0478e-41
2.6311e-41
-3.3743e-41
-1.7595e-41
-6.54e-43
-3.3177e-41
-3.3477e-41
4.65e-42
-8.59e-43
2.0034e-41
-1.6744e-41
-1.7857e-41
-1.7208e-41
-1.1423e-41
3.6e-42
1.1247e-41
3.73e-42
-2.3852e-41
1.1037e-41
-3.1526e-41
-1.5588e-41
7.1161e-41
-2.0544e-41
-4.948e-42
3.047e-41
3.388e-41
2.4165e-41
-5.0783e-41
1.9278e-41
-2.5732e-41
6.1747e-41
9.179e-42
1.0148e-41
1.0421e-41
1.7013e-41
-7.266e-42
-8.12e-42
2.4797e-41
1.4201e-41
-9.567e-42
2.3096e-41
-1.88e-43
3.0024e-41
-5.1513e-41
1.774e-41
1.9614e-41
5.614e-42
-2.8598e-41
-1.4704e-41
2.676e-42
7.018e-42
-2.6619e-41
3e-43
-2.0312e-41
-7.511e-42
-0.048607904
-0.05247575
-0.05049028
-0.01168719
-0.0019236094
-0.018588148
-0.0071238326
-0.007602809
-0.017532283
-0.00060576585
-0.012911027
-0.012460156
-0.027879495
-0.04884783
-0.07367105
-0.040673766
-0.039021436
0.007290193
0.013555419
0.008378523
-0.008058929
-0.010219917
-0.010052366
-0.0021495007
0.0073541026
-0.0059433207
-0.009968515
-0.012134105
-0.015393736
-0.052284133
-0.01915289
-0.0020893172
0.015207198
0.018330896
0.012150224
-0.007393884
0.0022655567
0.0027670753
-0.0031014762
-0.0022228488
-0.00064093014
-0.006080978
0.010295491
0.0059187766
-0.008184675
0.04110858
0.021790234
0.028343538
0.017583046
0.001243739
-0.0072309948
-0.014519399
-0.01937308
-0.019369898
-0.01793554
-0.024548251
-0.007287922
0.012300758
0.023778383
0.021037852
0.03179938
0.023408005
0.014369499
-0.020142457
-0.021198336
-0.028427664
-0.02852775
-0.017434055
-0.009026966
-0.029742034
-0.00993812
-0.02473294
-0.0063074967
0.028423173
0.057426117
0.0077078985
0.021169417
0.010278741
0.0011534118
-0.0122277085
-0.018298382
-0.0072590425
-0.011384567
-0.015305856
-0.020893397
-0.018407436
0.005369112
0.0053285817
0.019366153
0.060325496
0.009590624
0.01572315
0.030339899
0.027740097
0.004200798
-0.00017815731
0.0031813686
-0.002743428
-0.012005471
-0.0039740386
-0.0054898057
0.0063193874
0.044996373
0.016736437
0.03777234
0.0005115536
0.004034027
0.02381151
0.02300252
0.013047525
-0.0028374235
0.0010455728
0.004773017
-0.014086265
-0.020591877
0.004239307
0.010440325
0.036823336
0.018921128
-0.0020053068
-0.016458007
-0.021416767
-0.0059522865
-0.00057303475
-0.0011490836
-0.011982503
-0.009903633
-0.027002675
-0.031150622
-0.03895988
-0.023913348
-0.0014776291
0.006531377
-0.016254399
-0.003914003
-0.009568015
-0.032541182
0.0012308053
-0.013872376
-0.010522361
-0.005560015
-0.029019436
-0.027332291
-0.025594724
-0.020467687
-0.021097343
-0.014947868
-0.0021458627
-0.01634549
0.0032744275
-0.027828716
-0.017084848
-0.015605726
-0.025301363
-0.011615298
-0.017832862
-0.012903193
-0.025692865
-0.03376569
-0.021375526
-0.007604269
-0.0190306
-0.01475264
-0.010328987
-0.01267129
-0.036937885
-0.046123423
-0.023787823
-0.012567699
-0.0058284365
-0.019836707
-0.005787721
-0.01975389
-0.027755648
-0.021353599
-0.021412646
-0.028287238
-0.01905612
-0.01507146
0.015351664
-0.026924184
-0.010281115
-0.035700686
-0.02401456
-0.010342607
-0.016949022
-0.01500962
-0.02391774
-0.023710798
-0.005331261
-0.02707173
-0.017206987
-0.01649312
-0.0033466343
0.026262203
0.021888267
0.019287333
0.017387642
-0.024117941
-0.026602535
-0.013476594
-0.01993405
-0.016586887
-0.024784464
-0.025151653
-0.033632886
-0.020467708
0.0032825086
0.041156407
0.045857575
0.06087559
0.043495044
0.038530253
0.0036818453
-0.0014475621
-0.021378336
-0.025417788
-0.017096996
-0.021782426
-0.03302178
-0.018417696
0.009704546
0.032858044
0.06435965
0.07081857
-0.06137719
-0.060497247
-0.052260373
-0.050089102
-0.03435261
-0.018866088
-0.037470393
-0.031733587
-0.030712454
-0.049484514
-0.031390365
-0.046001464
-0.05872669
-0.075776465
-0.061511725
-0.05819836
-0.053187057
-0.03678689
-0.0107070375
-0.0101512745
-0.019417718
-0.015798703
0.0012010019
-0.005831675
-0.005604909
-0.015031195
-0.01376494
-0.022717247
-0.040537953
-0.053578217
-0.04177841
-0.032282475
0.005061528
0.017567076
0.0074510467
-0.017032221
-0.018758163
-0.0068279337
-0.0066344566
0.0022729444
-0.0022790506
-0.010547048
-0.010476024
-0.013535267
-0.02916803
-0.009526468
0.001213508
0.007208825
0.008251342
0.015101647
0.0132583985
0.0032285259
-0.00057866465
0.009414961
0.019406922
0.025667155
0.021037683
0.016306283
0.016412865
-0.014408267
0.029182792
0.033673815
0.036949717
0.027076209
0.018387351
0.016484603
-0.00054744777
-0.00066085067
0.0035823176
0.0020757678
-0.0034055884
0.007165022
0.0262168
0.02941155
0.031701397
0.026312461
0.014706363
0.0023248224
-0.025422156
-0.012953904
-0.005554894
-0.0134413205
-0.024124598
-0.012919456
-0.0024863742
-0.00091192935
-0.016571594
0.0069060763
0.032323983
0.060640447
0.024413792
0.0075265775
0.012074429
-0.0065726107
-0.011049952
-0.015091632
0.0147497095
-0.0051503945
-0.014191653
-0.011374491
0.0021937524
-0.010078529
0.011246743
0.02587212
0.061546326
0.018003404
0.024249677
0.023575008
0.023265574
0.0033258826
-0.0050706468
-0.0004295496
0.0012127236
-0.0021072854
0.0013130197
0.0062592337
0.010050933
0.033095386
-0.0026330517
0.031679764
-0.01005758
-0.0018605433
0.024975948
0.011524108
0.034311045
0.02864003
0.0107904915
0.026113221
0.011549106
0.003525761
0.024318649
0.025225163
0.028415909
-0.016188992
0.01029688
-0.035135414
-0.015016913
-0.00089778873
0.00020419608
-0.0091598295
-0.009779659
-0.019515196
-0.00027083955
-0.031583123
-0.02934361
-0.0034682006
0.001387908
0.0022265979
0.0052922275
0.019916859
-0.016058953
-0.0058874325
0.011141851
-0.0041055973
-0.012828866
-0.011345036
-0.035861567
-0.009515257
-0.02957882
-0.010959979
-0.011613703
-0.0048333765
-0.0015561982
-0.012440083
0.015963396
-0.032278433
-0.023586491
-0.009858956
-0.01565201
-0.009902789
-0.0043264204
-0.0040248954
-0.019265113
-0.03407065
-0.020182129
-0.016697692
-0.010636071
-0.019398097
-0.019745415
0.0074191014
-0.026069306
-0.02532748
-0.012187032
0.008157333
-0.0085286945
-0.008151665
0.01737923
0.0026410436
7.467152e-05
-0.0109380195
-0.009262646
-0.009788898
-0.03150647
-0.012546578
-0.0051162476
-0.024873335
-0.018103205
-0.022751046
-0.00091453374
-0.0046444177
0.0004652578
-0.0038379296
0.00240947
0.0024611903
-0.00814339
-0.018732814
-0.025074743
-0.021090034
-0.007805545
0.026545707
0.024387367
0.01913238
-0.005798027
-0.035379995
-0.022115791
-0.010313907
-0.020645896
-0.02288143
-0.008213201
-0.026711775
-0.03589816
-0.022640115
0.0064628217
0.04102722
0.021311287
-0.011615375
-0.012245124
-0.005544856
0.005375883
0.0011338524
-0.0053219916
-0.005256187
-0.0012871791
0.0007817767
-0.008393665
0.0011028721
0.0051387083
-0.001964619
-0.0035460456
-0.0094646
-0.0040319846
-0.004727778
0.0026987472
0.0066955253
0.0024446547
-0.004275404
-0.0048266584
-0.0037298203
0.00057189615
0.005212503
0.0036267042
-0.0003754442
0.0067222402
0.0004166373
-0.0033731507
0.00071755185
0.002639471
0.0048404816
0.0055453093
-0.0031026956
-0.00823216
-0.0091422275
-0.0010446863
-0.0031568191
0.0040356005
0.006917802
0.0040011387
0.009135309
0.0072320313
-0.00028675486
0.007279383
0.0065865526
0.003102486
-0.0016016108
0.00091120333
0.0047523347
-0.00029386848
0.0002634995
0.0010554682
0.006627273
0.0038426947
0.0021547037
0.00077198044
0.006377747
0.006369892
0.0046639084
0.0081198495
0.005109656
0.0039562
0.0022134318
0.00089131575
-0.0024542378
-9.816102e-05
0.00065270526
-0.0002625259
0.0024033592
0.0038260594
0.00013956588
0.003487706
0.016608596
0.004876585
0.0033793843
0.0015201269
0.0089594405
0.010538847
0.008548479
0.006273153
-0.002892518
0.0041999007
0.00202233
0.0020357375
0.004893031
-0.00952783
-0.00662919
0.012789722
0.0013224405
-0.0015430952
0.0029838178
0.0049164896
0.01553739
0.0035327957
0.0009811233
0.0021500129
0.0027458086
0.012115173
0.0158121
0.012923833
0.008695486
0.00073827995
0.007778109
-0.0031972805
0.0012827853
0.005085161
-0.003367459
0.0013888242
0.0017906046
-0.00360448
-0.004422359
0.0029304675
0.0011662451
0.0008858597
0.0015621645
0.0066152527
0.0021038027
0.0068611666
0.0038881062
0.0024880318
0.0039971224
0.004374096
-0.0016614721
0.0055162115
7.364146e-05
0.0039302474
0.008196581
9.356443e-05
6.544833e-05
-0.005606836
0.016509907
-0.0057868897
0.0043209936
0.00398212
0.0031408034
-0.0014782643
-0.00054342934
-0.002623866
-0.0039276253
-0.001600511
0.0057570366
-0.0010970908
0.0033796038
-0.0034327996
-0.0008383226
0.009202692
0.0015436537
0.010606206
-0.001313612
-0.0016918755
-0.0023652238
-9.823664e-05
0.0045375223
0.0049865707
-0.016664172
-0.007100776
0.0024103045
0.0022322412
-0.0031125587
0.0018776888
0.0035312602
0.0072171707
0.025320075
0.0018892033
0.0009120325
-0.0039868075
-0.0014957266
-0.00054775464
0.007968419
0.009119192
0.0032041399
0.0056393123
-0.00048680967
-0.0021241738
0.0043617613
-0.007343754
0.011963233
0.016609825
0.006987311
-0.0032537985
-0.005083391
-0.0017670485
0.0014868632
0.00078838854
0.0010947511
-0.001857729
-0.0035666323
0.00430188
0.0014317215
0.0028828953
0.000443275
0.014265513
0.008439074
0.0053835185
-0.0013371794
-0.0039857896
-0.0020562035
-0.0009472282
-0.0017607543
-0.0015838078
-0.0010723504
0.0021572576
-0.0008916292
0.0019518671
0.011420293
0.004465243
0.015323512
-0.0026207208
0.0151751535
0.0038648883
-0.0044126795
-0.005906841
-0.0022679726
-0.0010738568
0.00021787996
-0.002624399
-0.00018304864
0.0014092693
0.0055868668
0.006459289
0.008803179
0.0034445326
0.003169543
0.0004357596
0.008945258
0.02257635
0.024680967
0.034735084
0.026405219
0.018329702
0.036140546
0.0402455
0.032013483
0.013993273
0.029572131
0.025583489
0.01845347
0.0014776166
0.007883782
0.024478612
0.03421496
0.021279324
0.010899196
0.018361578
0.01613836
0.0064373263
0.014210552
0.035989456
0.034532752
0.01365276
0.025081566
0.015092557
0.024124714
0.025173925
0.025111469
-0.0031661922
0.0030893318
0.010336429
0.0008726505
-0.0012393103
-0.0048990143
-0.0020249581
0.0041586445
-0.0015187932
0.029015156
0.019633472
0.03618151
0.026418539
0.018481188
0.013517772
0.008247957
0.0073292945
0.013160989
0.010070833
-0.0019132714
0.0027179734
-0.011224173
-0.006193012
-0.009182242
-0.009497356
0.0053709573
0.019186547
0.023977218
0.016328286
0.02204314
0.020399636
0.012584498
-0.007961737
-0.008912792
-0.0117023075
-0.0025970144
-0.0022946096
0.003687552
-0.0053932765
-0.009530257
-0.008920708
0.030484714
0.026241433
0.025430076
0.033248257
0.029044108
0.025960432
0.022156436
0.03545116
0.018902875
0.032165464
0.017649999
0.035726458
0.014247219
0.020517878
-0.011261924
0.0049080146
0.025298623
0.017378759
0.028957587
0.020282788
0.015357911
0.03250537
0.024947314
0.017463872
0.022663666
0.014372693
0.03523155
0.030828187
0.024233924
0.016874079
0.0035032867
0.024478374
-0.013093103
-0.0028354453
-0.0006373362
0.022074452
0.018146245
0.0073906844
0.012684894
0.005404989
0.0041297046
0.0039057403
0.0100090355
0.014475018
0.010783003
-0.005354032
0.006629623
-0.013083951
0.0001148586
-0.014649257
-0.015225323
0.0030567467
0.0013854823
0.00019511007
-0.008155595
-0.01636739
-0.024442388
-0.0046304157
-0.008098922
2.5422696e-05
0.013531905
0.0032664603
0.016629832
-0.009381971
0.011035545
0.0065829526
0.0108280005
0.008241084
0.015392707
0.0121310875
0.009632061
-0.0069858436
0.007982507
-0.0047909347
0.01961658
0.01197734
0.028519033
0.025831783
0.003053351
-0.003594665
0.0028740056
-0.0019227046
0.020930363
0.0013433861
0.010488599
0.012951276
-0.009102066
0.01588394
0.0104408935
0.019912843
0.016280252
0.010323554
0.008103151
0.0054855347
0.005342037
0.006699465
0.015500996
0.024620019
0.027795145
0.027037201
0.020421527
0.011559902
0.0059452825
0.014210614
0.02055279
0.008857088
0.008837107
0.0295449
0.032682724
0.0034044818
0.010159895
0.019045737
-0.003642921
0.009392474
0.01945132
0.0051576267
0.016809082
0.00880104
0.007299989
0.014700125
0.011433894
0.03161748
0.039189678
0.04661437
0.021948656
-0.0070241126
-0.0068554264
0.0020730956
-0.002576208
0.010995964
-0.0061621927
-0.005084344
-0.004141958
0.018721484
0.031026984
0.023061167
0.0254347
0.04001264
0.051175218
0.041461498
0.011594011
0.012038101
0.008174966
0.015430637
-0.012630363
-0.005606336
0.02256605
0.020026723
0.022129921
0.028844226
0.050871864
0.028642423
-0.053349588
-0.052070957
-0.052217674
-0.040141743
-0.02554702
-0.025078483
-0.017121354
-0.0029016137
-0.010146064
-0.027818017
-0.023591982
-0.02950807
-0.05394458
-0.06739723
-0.0693589
-0.053194303
-0.04230331
0.0015626346
-0.0012393187
-0.006855764
-0.020604119
-0.022833113
-0.01939812
-0.009297254
-0.00073200575
0.00040476146
-0.0048803207
-0.00052185595
-0.04584511
-0.04575041
-0.0184654
-0.012879372
0.0021891007
0.0065985313
0.005854477
-0.01610561
-0.0049795746
0.0028843463
-0.0016742444
-0.00065045495
-0.000906798
-0.0016275409
-3.6381585e-05
0.0025150427
-0.042470858
0.0070224334
0.021032315
0.011855781
0.0028010362
0.010498139
-0.0067597977
-0.00548859
0.00021182265
-0.005193856
-0.012735478
-0.0013915732
0.009317122
0.030655894
0.032757424
0.0050251544
0.008005371
0.025069946
-0.008550832
-0.008655067
-0.006078733
-0.010559566
-0.02419113
-0.009585891
-0.025833083
-0.027111232
-0.019475078
0.010605125
0.0060341544
0.045808587
0.017590731
0.018785834
0.020165293
-0.014085869
-0.033752833
-0.01907256
-0.0065494897
-0.007737582
-0.018906519
-0.011757918
-0.009490878
-0.024523575
-0.015498598
0.009859187
0.042867877
0.04588275
0.020450426
0.033130486
0.004440582
-0.009189733
-0.0011781005
-0.0045280005
0.011858077
-0.004210467
-0.023356147
-0.0054291277
-0.018088995
0.004685076
0.017789459
0.039297905
0.028574122
0.017522095
0.026252532
0.027025852
0.011145436
-0.0040053492
0.009832957
0.0059318375
0.007514709
-0.012820893
0.0013412309
0.01452919
0.022334503
0.029208118
0.010283485
0.014486308
-0.006779331
0.002724233
0.011237005
-0.0046968726
-0.0023269816
-0.008912992
0.0029354908
-0.011416975
-0.037037585
-0.0063174716
-0.0077169854
0.01315738
0.016345147
0.005848732
-0.002236083
-0.034844704
-0.005878138
0.0030452306
-0.014430656
-0.024876986
-0.040812373
-0.030366065
-0.03278875
-0.041898645
-0.01964534
-0.007364349
-0.003886863
-0.006385542
0.0036928246
0.0003355474
-0.023401482
-0.014459958
7.3990945e-05
-0.00418806
-0.008272352
-0.019163482
-0.018840438
-0.021193009
-0.021363426
-0.022404106
-0.010064631
-0.023222608
-0.02248891
0.0016477258
0.011272229
-0.033137485
-0.025491526
-0.00826568
-0.011268199
-0.026873354
-0.013987054
-0.032362677
-0.020535821
-0.023663953
-0.012356359
-0.020463973
-0.012587548
-0.020959072
-0.020152804
-0.0019228194
-0.04312468
-0.034853064
-0.021978395
-0.0050011943
-0.013902157
0.0009018215
-0.0072291465
-0.020216126
-0.0194838
-0.01413717
-0.026870573
-0.030294398
-0.023688104
-0.0009604729
0.0064047817
0.0074985307
-0.01745272
-0.031407848
-0.017035235
-0.0127383685
-0.016568236
-0.019797618
-0.0010518096
-0.019082662
-0.024964985
-0.012460267
-0.03234542
0.012912039
0.015733019
0.03207251
0.038369127
0.049365513
0.002793666
-0.016915778
-0.016392639
-0.028774582
-0.031921983
-0.021458728
-0.008889189
-0.017162027
-0.016291238
-0.0013661864
0.05233433
0.050418563
0.061020356
-0.057897344
-0.053589948
-0.05183216
-0.043087143
-0.025405917
-0.02710551
-0.028223868
-0.027164854
-0.030762773
-0.01465599
-0.00350928
-0.027833233
-0.029750783
-0.03849868
-0.0687778
-0.03921436
-0.04785801
-0.023807712
-0.011781274
-0.024781492
-0.048724785
-0.052918956
-0.0455487
-0.030729521
-0.018404162
-0.02379378
-0.010282619
-0.02446468
-0.015786087
-0.03046428
-0.015826955
-0.023865813
-0.020620737
-0.013902161
-0.023947017
-0.034920868
-0.038451135
-0.031123774
-0.018018667
-0.021483298
-0.022319838
-0.018517347
-0.0077597434
-0.007859416
-0.0032260644
0.026191458
-0.009591326
-0.0013774508
-0.0009488096
-0.006583481
-0.012407916
-0.021384053
-0.01520754
-0.0055513713
-0.009725745
-0.012866435
-0.011836004
-0.0057182587
0.00953875
0.012086633
0.024672024
0.005906304
0.0031722586
-0.007746541
-0.015825767
-0.019153591
-0.01711427
-0.015421522
-0.016366009
-0.016118899
-0.013310918
-0.01313801
-0.00084823044
0.007107198
0.04329308
0.010661004
0.015167266
-0.0012503818
-0.009921561
0.0055740005
0.0002649073
0.00730186
0.020839188
-0.004428226
-0.007228651
0.003747796
0.005301836
0.0106821805
0.02486951
0.039952315
0.018678036
0.021314468
0.022482192
0.016012974
0.022338226
0.016961085
0.02134566
0.0069783516
-0.0010014037
0.0021929683
0.01808659
0.039121915
0.035577293
0.021113388
0.0045046783
-0.0068625407
0.0051644943
0.0076652137
0.014483111
0.012383958
-0.0037735624
-0.0012819272
-0.0018064921
-0.0067013633
-0.020565594
-0.0010115062
0.03169301
0.019249234
8.647307e-05
-0.00903678
-0.032141462
-0.019159043
0.0049805925
0.0076940157
0.0061743516
-0.005775621
-0.010697122
-0.009088414
-0.018672466
-0.01457919
0.010842332
0.021476638
0.0027786256
-0.0136611955
-0.0013115014
-0.029929668
-0.0330558
-0.012835655
-0.0021887065
-0.00721322
-0.0075415825
-0.02593114
-0.019516654
-0.015566204
-0.016559819
0.005973504
0.011978305
-0.010549662
-0.009979634
0.004868092
-0.054951236
-0.023036193
-0.013537732
-0.017966384
-0.014623889
-0.020608984
-0.023676883
-0.014667627
-0.018818742
-0.017431283
0.00843056
0.004235691
-0.0150430715
-0.009881483
0.008119233
-0.043675266
-0.044115305
-0.03161781
-0.013277371
-0.015617333
-0.027990188
-0.012037518
-0.023461808
-0.024284547
-0.003600366
-0.0050995853
-0.006563617
-0.02736426
-0.016450923
0.025510406
-0.039941367
-0.0119582405
-0.027045863
-0.021218646
-0.017558184
-0.012445248
-0.01477484
-0.019068027
-0.008691827
0.0017182523
-0.008923389
-0.012359036
-0.023989907
0.004892867
0.046584185
0.016864484
0.015959509
0.018569838
-0.01080095
-0.0332888
-0.014006158
-0.025335668
-0.02516025
-0.016179599
-0.009201152
-0.02045259
-0.020770427
0.0007105292
0.061739154
0.054506157
0.06189634
0.060207702
0.037835207
0.004514108
-0.0040698918
-0.0017065952
0.0064274566
0.01052578
0.011230129
-0.0020105306
0.010456511
0.037749518
0.04635965
0.09425211
0.06739388
-0.028267613
-0.032068018
0.0057921447
0.011783104
0.011963172
-0.0014142363
0.013666279
0.01147018
0.014562931
0.015071906
0.017054861
-0.0075833965
-0.020780476
-0.030497532
-0.04498813
-0.011721719
-0.0002090231
0.030125627
0.02783808
0.0030557073
0.0020582927
0.007075079
0.0078098592
0.009849253
0.019300645
0.009485456
0.006183415
0.002837905
0.0009796646
-0.026471686
0.005807093
0.015882555
0.028659133
0.016188394
0.022652468
-0.0043071965
0.012133009
0.007931851
0.0084933145
0.011774803
0.022242041
0.016321458
0.034745485
0.007977169
-0.012117996
0.021365523
0.025820188
0.02633236
0.0014948032
0.011047259
0.008005349
-0.014006817
-0.0063252267
-0.007875437
0.0021084968
-0.003371203
0.017999142
0.01351449
0.015611023
0.014139449
0.031012481
0.025551382
0.014820043
-0.00019100106
-0.015408872
-0.019314365
-0.0006817209
0.00034508383
-0.019286472
-0.016688876
-0.0009308378
0.0020289742
0.023566201
0.01912964
0.024180986
0.017568534
0.025186269
0.0061800755
0.009415002
0.008351748
-0.00483595
0.011991547
0.015766237
0.0047461926
-0.0070670936
-0.011372447
0.00725727
0.013324714
0.03491506
0.029540129
0.037653584
0.030819515
0.032896217
0.020042574
0.021071913
0.023365464
0.03254837
0.02372779
0.0007061283
-0.00435073
0.025320133
0.021129187
0.025055578
0.039861344
0.01453595
0.020438792
0.024296464
0.01983263
0.005036867
0.01068322
0.0086713685
0.011819165
0.012794096
-0.003611534
0.01810482
0.005252375
0.016161809
0.00876039
0.007460992
0.0006282698
0.0046818266
0.017735535
0.016372673
-0.00025221065
-0.008417732
-0.0027098835
-0.010285679
-0.0026513806
-0.02640763
-0.019435214
-0.008660521
0.007259445
0.012071487
-0.005393767
0.009054495
-0.008594978
0.00016028732
0.015834048
-0.0014789755
0.0074201697
-0.013428633
-0.023715245
-0.0051797703
-0.015965434
-0.004900103
0.00056039274
-0.0037906207
-7.4964664e-05
0.0026871038
0.020651786
0.0007955683
0.003600312
0.009765907
0.00034306917
0.005311019
-0.011644548
-0.014848374
-0.020682702
-0.012985414
-0.008053511
-0.002267702
0.005505531
-0.017067324
-0.0015857422
0.013367614
-0.009057794
-0.0068493835
-0.0069135153
0.01421409
0.0048598275
0.006518934
0.015578419
0.0038769955
-0.007665141
0.011496072
0.009660089
0.0068359347
-0.0036205405
0.007834946
-0.00077799417
0.013188231
-0.0101432735
0.0072654528
-0.0047057145
0.015053862
0.012237609
-0.00048172387
-0.009955299
0.0004544643
-0.0006514072
-0.007147688
-0.009975079
0.003434509
0.0063207704
0.015988966
0.035263415
0.0115393875
0.026653765
0.0033551285
-0.0044601858
-0.013524289
-0.014396455
-0.0060522095
0.0045994995
-0.0085078105
-0.0042176303
-0.0015705907
0.02770142
0.037177663
0.036116153
0.040276617
0.05628962
0.02689899
0.010264251
-0.0030510444
-0.00055038737
-0.019642478
-0.012655495
-0.010667026
-0.003565407
-0.000589038
0.03058226
0.03603291
0.062352985
0.046143107
-1.0113e-41
3.6714e-41
1.2607e-41
8.83e-42
-1.676e-41
1.6251e-41
-4.7852e-41
1.8821e-41
-8.978e-42
-1.1771e-41
-7.818e-42
1.898e-41
2.0361e-41
-2.3533e-41
7.302e-42
-2.1304e-41
1.7889e-41
-1.4366e-41
1.19e-42
1.4398e-41
-1.9055e-41
1.862e-42
3.5181e-41
-4.085e-42
1.4883e-41
2.0829e-41
-2.083e-41
2.509e-41
2.0389e-41
1.738e-41
2.5767e-41
1.5498e-41
1.9484e-41
3.6666e-41
-3.0424e-41
2.9616e-41
-2.6152e-41
2.3543e-41
9.13e-42
4.7256e-41
-1.095e-41
4.355e-42
-2.814e-41
2.462e-42
1.976e-41
2.9048e-41
1.1369e-41
1.1963e-41
1.2117e-41
2.4422e-41
-1.3503e-41
2.339e-42
-6.3933e-41
-2.3468e-41
1.9025e-41
2.106e-41
2.6754e-41
-1.773e-42
1.7829e-41
2.2565e-41
3.3998e-41
1.1397e-41
7.322e-42
4.525e-41
-2.0982e-41
-1.3576e-41
2.8947e-41
-1.7379e-41
4.0416e-41
4.149e-42
1.2993e-41
-1.4764e-41
1.49e-42
2.0923e-41
-1.788e-42
-5.9011e-41
1.2553e-41
2.9598e-41
-4.3238e-41
-5.6575e-41
-3.3904e-41
-2.019e-41
3.673e-41
3.68e-41
1.471e-41
8.038e-42
2.0836e-41
1.2012e-41
4.635e-42
1.2895e-41
2.9018e-41
-4.6205e-41
-5.04e-43
1.5833e-41
7.735e-42
-2.485e-41
-2.282e-41
-5.91e-42
4.0873e-41
1.4655e-41
-4.4152e-41
3.883e-42
-1.0817e-41
-7.0927e-41
1.124e-42
1.06e-43
3.4681e-41
-3.7116e-41
1.5063e-41
1.5765e-41
2.1322e-41
-1.9251e-41
6.2386e-41
-2.1303e-41
1.1725e-41
-3.2416e-41
3.887e-42
-1.9718e-41
2.063e-41
-3.335e-41
9.934e-42
-1.6455e-41
-2.3745e-41
-2.8037e-41
-5.1423e-41
-2.2763e-41
1.5563e-41
-2.0438e-41
2.102e-42
-2.4617e-41
6.02e-42
6.5e-43
-3.6144e-41
4.1757e-41
3.044e-42
5.449e-41
-1.363e-41
-3.5809e-41
7.674e-42
-1.4586e-41
1.8001e-41
-4.3768e-41
-1.0127e-41
-4.692e-42
1.0581e-41
-1.2152e-41
6.142e-42
-1.8798e-41
-1.8218e-41
2.5923e-41
-3.2964e-41
-4.9456e-41
-2.5687e-41
6.756e-42
-1.8476e-41
-8.72e-42
-1.3283e-41
-1.916e-41
1.8518e-41
1.7107e-41
2.2744e-41
-1.2863e-41
3.6746e-41
2.5062e-41
-1.9429e-41
-9.651e-42
2.6141e-41
-3.614e-41
-1.4368e-41
6.1895e-41
1.8221e-41
-3.0732e-41
-8.488e-42
-9.08e-42
-1.9079e-41
3.5831e-41
-9.84e-42
-9.54e-43
2.3807e-41
-8.8293e-41
-5.8664e-41
-3.4826e-41
1.9509e-41
1.7413e-41
-3.3724e-41
2.3595e-41
1.4737e-41
5.2421e-41
-1.6877e-41
3.6895e-41
2.9043e-41
9.46e-43
1.3811e-41
-2.004e-42
-1.099e-41
2.174e-41
-6.393e-42
3.9323e-41
3.095e-42
1.3409e-41
2.8358e-41
1.0776e-41
1.4795e-41
1.3329e-41
3.5122e-41
-1.4384e-41
-3.3404e-41
1.814e-41
-2.3978e-41
1.0343e-41
-2.6803e-41
-1.0925e-41
-2.4248e-41
-4.295e-42
-4.783e-42
1.9415e-41
2.566e-42
-1.4564e-41
1.384e-41
-1.74e-41
-9.502e-42
2.9835e-41
-5.778e-42
1.7218e-41
-1.8217e-41
0.02817894
0.016889086
0.030841528
0.03719659
0.032894354
0.04297611
0.046674337
0.05653293
0.059806094
0.03725096
0.0056925
0.05316031
0.065462574
0.073323295
0.069624774
0.018040283
0.012666494
0.02119464
0.029883208
0.048210807
0.038597375
0.032218415
0.0047834353
-0.002019218
0.02623276
0.02699922
0.0385134
0.036450107
0.02695229
0.054714657
-0.010338137
-0.007806249
-0.011130849
0.019964727
0.032642838
0.027050938
0.026178563
0.010702447
0.021163225
0.025268381
0.009988314
0.018409817
0.026110968
0.03984746
0.017205028
0.0045064916
0.0010115335
0.01198521
0.01026384
0.015557815
0.0339703
0.00019964745
-0.008673648
0.016789876
0.01135598
0.011386955
0.012498862
0.015486536
0.018157091
0.0076211654
-0.0040185372
-0.005622784
0.02523096
0.03642108
0.02783931
0.008294708
0.004998594
0.011100994
0.01825081
0.010653744
0.003914712
-0.0036365488
-0.0016407822
-0.0030056909
-0.0043954733
-0.0046179635
-0.027029492
0.012928518
0.02492059
0.02257275
0.007858754
0.020705935
0.019254459
0.008881002
0.03032392
0.035461184
0.018812284
-0.005172794
-0.017203702
0.009456821
0.0055936705
-0.0028643843
0.0025934672
-0.013733019
0.04066788
-0.0069212806
-0.018872224
0.0070297746
-0.0028442012
-0.0013490506
0.008664949
-0.015167338
-0.010915874
-0.011823764
0.015700446
-0.009443482
0.007917122
0.002251709
-0.012961784
-0.03096893
-0.0057418575
-0.013608878
-0.00965687
0.0050095078
0.01002174
0.011034045
-0.03127533
0.028684083
0.007524776
0.0069610006
0.030954532
-0.001624595
-0.01805147
-0.0045598564
-0.0014760497
0.023228114
0.009219388
0.030576736
0.025936112
-0.037625544
-0.03115631
-0.03168794
0.040842492
0.009500174
0.016599165
0.025227144
-0.018045036
-0.0118676135
0.003975784
-0.00028206932
0.043492246
0.015042879
-0.0022686834
0.031794265
-0.031665545
-0.0016781403
0.0096973
0.029598383
0.002957821
0.04678633
0.028906334
0.025521655
-0.012644325
-0.005232738
-0.011881369
0.04480041
0.03397003
0.03193254
0.022645414
-0.028655462
0.002817911
0.030672895
0.028690623
-0.00069183455
0.012957166
0.03761285
0.01559939
-0.0014651726
-0.0013786902
0.003866821
-0.012574371
0.007949892
0.042731144
0.053286478
0.024293968
0.031578105
0.03896545
0.020794941
0.006446664
0.0050734305
0.03482036
0.04423588
-0.017692452
-0.0117962165
0.013662612
-0.010723196
0.018538015
0.012870406
-0.00619092
0.018131379
0.032562375
0.0138923405
-0.00057251466
-0.011927357
-0.008965509
0.017115401
0.032459673
0.02412964
-0.014342789
-0.011903861
0.026226668
0.010078245
-0.00033488745
0.016018936
0.05961114
0.015297645
-0.008573738
-0.023235636
-0.024161125
-0.018091984
0.00088366895
0.0006952728
0.03301956
0.004003871
-0.024018725
-0.0010527853
-0.0014442771
-0.019087698
-0.0014144887
0.007885505
-0.005513476
-0.032692652
-0.050989788
-0.0052535846
-0.022853319
1.2197e-41
1.8965e-41
3.1403e-41
2.5222e-41
1.959e-41
1.749e-42
2.3186e-41
-2.2142e-41
-1.2329e-41
-1.2253e-41
1.574e-41
-1.54e-42
8.339e-42
4.892e-41
1.2373e-41
2.0965e-41
5.66e-43
-2.223e-41
-2.2614e-41
1.5103e-41
-6.8395e-41
-3.8988e-41
2.2903e-41
-9.561e-42
-1.3769e-41
1.6511e-41
-2.37e-42
1.7794e-41
6.1129e-41
4.4182e-41
6.5687e-41
-1.478e-41
1.7806e-41
2.1213e-41
-2.8145e-41
-1.34e-41
-2.0194e-41
8.52e-42
3.9538e-41
1.7111e-41
-5.2107e-41
-4.81e-42
7.2865e-41
-2.6539e-41
-2.0222e-41
4.2028e-41
-2.8938e-41
-7.79e-43
-2.3172e-41
-3.0258e-41
-2.9059e-41
-9.932e-42
8.667e-42
-2.9961e-41
-5.147e-42
-1.6394e-41
-2.3595e-41
1.1188e-41
-2.3e-43
-1.8455e-41
-1.5896e-41
4.0384e-41
2.4527e-41
-1.8609e-41
3.9283e-41
-2.2544e-41
1.7338e-41
-3.631e-42
-5.828e-42
3.1692e-41
1.1439e-41
-4.299e-42
-2.3288e-41
2.6525e-41
2.8748e-41
-1.1104e-41
2.1933e-41
2.5219e-41
2.4355e-41
-3.873e-42
-1.3915e-41
-2.7472e-41
-2.0626e-41
2.5107e-41
1.4176e-41
-2.8393e-41
-3.8665e-41
4.0094e-41
3.7474e-41
2.4705e-41
-6.122e-42
1.9578e-41
2.208e-42
-2.8278e-41
-2.881e-41
7.7092e-41
1.3042e-41
2.741e-42
-1.2556e-41
1.6746e-41
2.0097e-41
-1.8521e-41
-8.3969e-41
1.2631e-41
6.097e-42
-1.518e-42
2.078e-41
5.5417e-41
4.931e-42
-1.6548e-41
-6.397e-42
3.3215e-41
1.8281e-41
4.617e-42
2.065e-41
-1.1963e-41
-1.1308e-41
-3.3048e-41
-1.4892e-41
-5.2973e-41
2.0137e-41
5.552e-41
4.645e-41
2.2574e-41
-4.1008e-41
-1.1292e-41
-1.5947e-41
2.3142e-41
-3.4245e-41
-4.8112e-41
1.9489e-41
4.8084e-41
1.5849e-41
1.6919e-41
3.7588e-41
2.9579e-41
8.77e-42
-2.1455e-41
-1.4194e-41
6.369e-42
7.402e-42
4.3614e-41
-1.16e-41
-9.91e-42
1.8562e-41
-2.4783e-41
-1.1128e-41
-5.1931e-41
-1.7958e-41
1.5685e-41
2.0913e-41
2.4712e-41
-1.9103e-41
2.878e-41
2.0459e-41
-1.6782e-41
1.6153e-41
-5.2984e-41
3.0498e-41
1.795e-41
-7.9612e-41
2.1248e-41
-1.4449e-41
-2.4911e-41
2.138e-42
-1.0957e-41
-8.893e-42
5.0818e-41
2.7847e-41
-1.431e-41
-4.9054e-41
-2.1324e-41
3.178e-42
-8.995e-42
1.339e-41
1.4439e-41
2.1668e-41
-1.6593e-41
-1.9526e-41
1.3783e-41
2.5962e-41
-1.328e-42
-4.051e-42
-1.4705e-41
1.656e-42
1.7903e-41
9.907e-42
3.129e-42
1.6107e-41
-2.0205e-41
1.792e-41
-1.8487e-41
-3.36e-43
-3.9818e-41
1.5638e-41
8.52e-43
2.8345e-41
-2.0004e-41
1.6317e-41
-1.6893e-41
-4.2e-42
1.7917e-41
-1.7823e-41
-1.6971e-41
3.2e-41
3.9284e-41
1.4826e-41
1.2053e-41
3.6041e-41
1.8525e-41
5.3015e-41
1.621e-41
1.778e-41
-1.8294e-41
1.629e-41
-2.5202e-41
3.0977e-41
1.352e-42
-9.488e-42
-1.1226e-41
-3.9574e-41
-2.154e-42
-6.9747e-41
2.1464e-41
-3.3205e-41
5.5037e-41
2.472e-41
-2.1036e-41
4.6774e-41
-3.4849e-41
6.208e-42
-2.3585e-41
1.7613e-41
-1.8231e-41
1.3885e-41
-6.07e-42
1.7541e-41
-1.1967e-41
-6.271e-42
-3.4364e-41
-9.56e-43
-2.0187e-41
1.9164e-41
8.79e-43
5.1663e-41
-3.53e-43
3.2716e-41
1.7558e-41
-3.6982e-41
2.4296e-41
2.21e-42
1.8336e-41
1.7136e-41
-4.8217e-41
-1.0353e-41
-1.19e-43
-1.0137e-41
4.947e-42
-1.1237e-41
-1.5243e-41
7.211e-41
4.556e-42
1.4251e-41
1.4415e-41
2.3039e-41
2.316e-41
2.6874e-41
1.5773e-41
-8.437e-42
-3.4961e-41
-2.7537e-41
1.9407e-41
6.491e-42
-1.6865e-41
2.504e-41
3.145e-42
-2.3514e-41
-8.586e-42
3.6829e-41
-4.7274e-41
1.47e-43
-9.195e-42
1.8682e-41
2.9364e-41
1.8054e-41
3.655e-42
-1.3171e-41
-1.6594e-41
-1.3776e-41
1.2176e-41
1.708e-42
1.0922e-41
4.97e-43
-2.0385e-41
4.4771e-41
5.5818e-41
-7.688e-42
1.8925e-41
3.6748e-41
-5.011e-42
-1.041e-42
-3.8257e-41
2.1118e-41
8.678e-42
1.8419e-41
-2.5921e-41
1.7592e-41
-1.8768e-41
-2.803e-42
-6.9e-44
-1.7436e-41
-1.0822e-41
-1.3259e-41
2.198e-41
-1.5208e-41
-3.0993e-41
1.9199e-41
1.3993e-41
6.169e-42
1.798e-41
-2.0152e-41
-1.7143e-41
-1.0052e-41
1.916e-41
3.5813e-41
1.8504e-41
-2.6454e-41
-3.473e-41
3.034e-41
3.4918e-41
2.2984e-41
-2.0368e-41
1.7135e-41
1.7942e-41
-2.262e-41
-3.389e-41
4.9173e-41
3.7708e-41
-2.69e-43
3.026e-41
-2.6913e-41
3.3142e-41
-1.0992e-41
-1.6954e-41
4.022e-42
5.6028e-41
-2.9346e-41
2.435e-42
4.446e-42
-2.614e-41
-1.8705e-41
1.9485e-41
2.7292e-41
-1.5968e-41
-3.9689e-41
-2.0892e-41
1.469e-42
2.2195e-41
2.9139e-41
-1.4236e-41
-2.0644e-41
5.164e-42
-3.0844e-41
8.425e-42
-1.7211e-41
-2.2055e-41
2.1218e-41
-2.0958e-41
4.057e-42
-2.7386e-41
-1.7656e-41
2.779e-41
-1.797e-41
-1.5194e-41
2.6515e-41
-1.0102e-41
-7.655e-42
6.815e-42
2.7705e-41
-1.7427e-41
-9.15e-42
-1.0822e-41
-2.2667e-41
4.495e-42
-1.5657e-41
2.9097e-41
1.4467e-41
1.0821e-41
1.1558e-41
3.618e-42
-2.0935e-41
4.66e-41
-1.7003e-41
4.902e-42
3.3627e-41
-2.7564e-41
-3.8146e-41
-1.5497e-41
-2.1179e-41
1.2159e-41
-9.998e-42
-3.9885e-41
5.925e-42
-8.178e-42
1.494e-41
-1.7401e-41
-2.5687e-41
1.2476e-41
-1.583e-42
1.4946e-41
-4.3173e-41
-2.7056e-41
-4.18e-42
-1.4833e-41
8.032e-42
1.825e-41
-5.11e-43
-1.8793e-41
-2.0009e-41
-3.306e-41
-8.133e-42
3.383e-42
-2.039e-41
-8.221e-42
-2.4667e-41
-1.1093e-41
-1.948e-41
1.3556e-41
-1.5437e-41
5.221e-42
3.744e-42
-1.8e-43
-1.406e-42
3.496e-42
-5.0699e-41
2.5191e-41
-4.3084e-41
3.5695e-41
1.0871e-41
6.0333e-41
5.8696e-41
3.1606e-41
1.6432e-41
-3.9773e-41
-3.5395e-41
2.207e-41
-1.6895e-41
-1.4261e-41
-1.9744e-41
2.1259e-41
-0.021993728
-0.03245303
-0.045790315
-0.041724578
-0.052810974
-0.047174003
-0.034647588
-0.024018029
-0.0347095
-0.03079989
-0.039711073
-0.016925553
0.006118616
-0.027879545
-0.023140324
-0.044488024
-0.05534504
-0.044609234
-0.047116086
-0.05031057
-0.04328354
-0.045923863
-0.047913566
-0.037586346
-0.047442567
-0.045154177
-0.028599018
-0.007501881
0.0015838826
-0.02110962
-0.048669863
-0.03196938
-0.01175126
-0.01949852
-0.021851726
-0.038118985
-0.058004107
-0.05544547
-0.059225082
-0.03656811
-0.013192011
-0.031657398
-0.02416829
-0.011344381
-0.022142079
-0.03377896
-0.030374993
-0.012833067
-0.005497489
-0.011948786
-0.011726611
-0.0027952134
0.0033743468
-0.002305017
-0.007747005
-0.0014730039
0.0113572255
-0.027566109
-0.03081535
-0.031038372
-0.04654628
-0.02426926
-0.025834255
-0.03733293
-0.043057214
-0.030001873
-0.0302006
-0.04832769
-0.051780604
-0.03748923
-0.036356233
-0.032979906
-0.028849147
-0.038906608
-0.027180828
-0.03799753
-0.012285277
-0.010120726
-0.0608791
-0.06404985
-0.050650787
-0.024707938
-0.020738637
-0.036635485
-0.034687273
-0.034703985
-0.021878967
-0.020049656
-0.043106038
-0.025101097
-0.020464998
-0.0008249802
-0.018679937
-0.055224337
-0.054833792
-0.023199124
-0.0020870455
-0.02993022
-0.003199726
-0.030305155
-0.027293097
-0.004989186
-0.02393626
-0.015260962
0.0022779
-0.016545244
-0.01784681
-0.036094964
-0.052211877
-0.040245034
-0.045142658
-0.016992329
-0.03551514
-0.05732958
-0.053459216
-0.01900909
-0.01545405
0.023888033
0.0070695244
0.02433648
-0.006124667
0.017495997
-0.008542857
-0.040211678
-0.03167743
-0.03013469
-0.038331788
-0.03440926
-0.026988536
-0.046076965
-0.020298813
-0.0019491641
0.0016089476
0.048257574
0.05164636
-0.017750543
-0.001984279
0.0024778198
-0.050051413
-0.05394398
-0.043553658
-0.04141113
-0.047518577
-0.02735404
-0.012776969
-0.023354767
-0.02216926
-0.013598916
0.028931983
0.04516708
-0.0063786185
0.0071776947
0.023546971
-0.0414508
-0.014015915
-0.059128013
-0.027702924
-0.007338293
-0.003092505
-0.017872483
-0.020756498
-0.027178088
0.036955025
0.03092086
0.034884293
0.0062642284
0.015500629
0.012008116
-0.01327417
-0.039424382
-0.04974609
-0.01387882
0.011158843
0.0209802
-0.0044226116
-0.026083933
-0.011967417
0.020463472
0.03769264
0.012217198
0.005376608
0.007697174
0.018667787
0.00848378
0.0047921133
0.0003992188
0.0024302185
-0.0052152546
0.0042667757
0.013487677
0.018100806
0.02526084
0.052227125
0.03597222
0.011740983
0.019784248
0.008122396
-0.012750327
0.034409177
0.03193482
0.02138936
0.014458006
-0.0124995
-0.038601156
0.0088237515
0.032712545
0.033424355
0.032920238
0.020329157
0.014915678
0.034738176
0.0068924474
-0.026141787
-0.003227418
0.02419357
0.012080713
0.027551617
0.024600765
-0.011688772
-0.0018613249
0.014433123
0.03243669
0.034783047
0.026692376
0.04172747
-0.030925922
-0.027765524
-0.040082287
-0.028584924
-0.011484079
-0.030077243
-0.024897274
-0.0076795286
-0.030203296
0.005037608
0.0064749676
0.01544588
0.012245268
-0.028194886
-0.016651366
-0.03806676
-0.020423274
-0.04386885
-0.04331903
-0.022005942
-0.012873325
-0.005320549
-0.0050955317
-0.019968783
-0.007834732
-0.019029865
0.00109917
0.017574083
0.006761332
-0.010684419
-0.034152497
-0.023156356
-0.031189589
-0.03959506
-0.047657132
-0.049204625
-0.029507305
-0.03174557
-0.018450547
-0.022389382
-0.020548023
-0.02269292
-0.009957097
0.041180268
0.016210422
-0.02308317
-0.009868573
-0.0049980995
-0.016722303
-0.020922005
-0.030231148
-0.015942477
-0.0150576215
-0.025985364
-0.016549582
0.010325209
-0.010859683
-0.036141716
-0.0010468743
-0.010132444
-0.01590782
-0.016415851
-0.033957984
-0.0317121
-0.033648618
-0.02755668
-0.021789385
-0.027029498
-0.016746193
-0.006313514
-0.012704311
0.0075506642
-0.029314077
-0.008858509
0.00039263917
-0.034387186
0.003687043
-0.05504779
-0.047847897
-0.022377549
-0.008530233
-0.014488443
-0.016191289
-0.024563003
-0.026528455
-0.014618881
-0.008002655
0.0017840207
-0.028206669
0.003767551
-0.01747398
0.02522314
-0.0077868146
-0.023691142
-0.016279249
0.017492762
0.0016818118
-0.031519543
-0.020168442
-0.008680786
0.011215019
0.008055411
-0.0047213235
-0.0059605385
-0.0014191732
-0.00076744036
0.0050654165
-0.06322993
-0.043397576
-0.00027750837
-0.011182691
-0.015980976
-0.0015430438
-0.044612087
-0.029057836
-0.002094567
-0.013296757
0.01936471
0.012558133
-0.0013813602
0.0023191296
0.011477868
-0.032079685
-0.037130658
-0.05110856
-0.054644395
-0.029443461
-0.010621412
-0.02485121
-0.02830358
-0.00458684
0.001898167
0.023336152
0.044799108
0.004870824
0.022603493
0.011903561
-0.018773682
-0.028192839
-0.030088156
-0.037990108
-0.028571658
0.0008514801
-0.011778722
-0.016925534
-0.011725058
0.011729019
0.02902821
0.02647217
0.012071879
0.0111722
0.012937079
-0.0059417738
-0.028021026
-0.01138028
-0.004798175
-0.017693557
-0.014976894
-0.0059404057
-0.0128842555
-0.011231726
0.006261482
0.030757042
-0.0017107731
-0.0036125947
0.035845097
0.012298268
-0.02103478
-0.008800545
-0.021834707
-0.035570405
0.007435852
0.018601889
0.00732808
-0.0039561526
-0.008075038
-0.017511303
0.030537447
-0.0070027877
-0.035061363
-0.0052667777
-0.012240549
-0.021116413
-0.03673413
-0.013110334
-0.009793953
0.005998583
-0.010071596
-1.1960196e-05
0.02963868
0.028097492
-0.0011151573
0.009817054
-0.021408273
-0.034362707
-0.0012974745
-0.035849556
0.025568677
0.021807346
-0.0017517204
0.030429414
0.0036525768
-0.0142409345
-0.017446756
0.018943582
0.018816384
0.024444984
-0.0052123144
-0.012173764
-0.042710878
-0.01497472
-0.033682805
-0.017317079
0.00015313491
0.0039353333
0.0069856523
0.0180835
0.0017510529
-0.0060060886
-0.008034679
-0.00017504326
0.024886051
-0.013014887
-0.014401881
0.0018098833
-0.0049659377
-0.020198474
-0.021242585
-0.016502516
-0.04481407
-0.019916479
-0.03918113
-0.041863427
-0.031150319
-0.04261309
-0.042416174
-0.036530495
-0.010610834
-0.018867243
-0.030308902
-0.017933404
-0.030510765
-0.01493381
-0.021123577
-0.04415846
-0.02906731
-0.036473975
-0.046264976
-0.024748513
-0.033309024
-0.06570928
-0.0435371
-0.026513183
-0.007950419
-0.018082455
-0.0434138
-0.029206607
0.0044584633
0.0041808123
-0.020353416
-0.029770385
-0.049447946
-0.05581074
-0.05289632
-0.043768894
-0.042578913
-0.025189158
-0.023137683
-0.025655523
-0.026937496
-0.041729774
-0.025858734
-0.013180562
-0.0143330265
-0.034205094
-0.026615439
-0.040233668
-0.024102474
-0.03412504
-0.020598235
-0.035765972
-0.023288364
-0.00090773305
-0.04427085
-0.019569302
-0.04470301
-0.008778983
-0.00013856275
-0.026039083
-0.03402799
-0.02290557
-0.03041894
-0.025498882
-0.030497208
-0.0247943
-0.028906073
-0.016251454
-0.008534103
-0.018639613
-0.011648734
-0.01376755
-0.004690655
0.0029081912
-0.014788563
-0.05424366
-0.040522467
-0.025829738
-0.022542728
-0.022802288
-0.022841187
-0.036694184
-0.03740568
-0.033134695
0.0031734111
-0.023077196
0.0055267103
-0.0014070465
0.0027136938
-0.031405807
-0.04816087
-0.023006612
-0.016656723
-0.03127231
-0.014875196
-0.013877616
-0.01703075
-0.016241089
-0.0236585
-0.026021428
-0.020165231
0.0021173551
-0.0018579749
0.00038553873
-0.03824297
-0.059982292
-0.054590125
-0.034945417
-0.053178787
-0.02314724
-0.028154373
-0.028396107
-0.01338515
-0.0130709745
-0.030828234
-0.0012359716
-0.012101362
0.002937345
0.007269716
-0.038664963
-0.042687133
-0.04269412
-0.058414966
-0.057764225
-0.002430572
-0.0078228945
-0.029894842
-0.022550423
-0.021209195
0.0035499951
0.019840479
-0.014273491
-0.0091979
0.016552795
-0.032648705
-0.035708327
-0.027710829
-0.05805623
-0.06333932
-0.021103498
-0.0030774323
0.00285837
-0.0019195064
-0.015937326
-0.0056460598
0.012941222
0.011745452
0.0225664
0.019660173
-0.024031201
-0.007718659
-0.03021541
-0.039887253
-0.03608579
-0.02168013
-0.012350404
-0.010719894
-0.027153706
-0.02951945
0.019277427
0.0018310378
0.017434245
0.025424954
0.02307773
-0.005506925
-0.0037599255
-0.033117373
-0.024818564
-0.015645448
0.0118825
0.01754562
0.0013206542
-0.011372071
-0.03446535
0.01962622
0.023214374
-0.0030641076
0.021462364
0.025300069
0.006523165
-0.004365099
0.0024947545
-0.005873491
-0.011140901
0.008768364
-0.0032874125
0.013291362
-0.00013601665
-0.00024723806
0.041118912
0.029397313
0.026818417
0.033871442
0.004895572
0.0071497224
0.017052926
-0.017760409
0.0085071605
0.005404704
-0.020472415
-0.053644888
0.004265995
-0.024657229
0.009180557
0.008256415
0.02397398
0.036198854
0.035818443
-0.008010903
-0.020417903
0.00307881
-0.0035041766
0.012139684
0.019848812
-0.013288553
-0.012885987
0.0020928145
